102 64
48 0.016244283 0.12667887 -0.039147522 0.044857897 -0.12075068 -0.17530692 0.015026677 -0.03056086 0.05125514 -0.03766192 0.04063686 -0.2171752 -0.0068938476 0.13883635 -0.028104344 0.11640688 0.50023264 -0.110216886 0.03706722 0.13188808 0.09796935 -0.22990118 0.3162075 0.24175738 -0.58284 0.840198 -0.2049163 -0.07109211 -0.44476965 0.49219128 -0.034588408 -0.17003879 0.13128495 0.27747062 -0.24736631 0.043171935 0.18347138 -0.32985088 0.10762259 0.21103676 -0.0080855405 0.22941104 0.2612411 -0.48286882 0.00054456014 0.21104261 0.39724028 -0.15322755 0.097181894 -0.093299285 -0.13961992 0.0007223564 -0.00011533243 -0.17585164 -0.35615864 -0.085802935 -0.039028697 -0.287988 -0.12135338 -0.28117836 0.08980227 -0.1352261 -0.09566758 -0.119153485
47 0.03194385 0.11697208 0.1423656 0.062612586 -0.116467796 -0.18055935 0.018325077 0.03144356 0.11966239 0.014094447 -0.0133877965 -0.20162396 -0.025930673 0.18938817 -0.035580568 0.18302731 0.54394776 -0.039095897 0.08527616 0.08282472 -0.02160533 -0.17330374 0.40411478 0.2107032 -0.5856883 0.83625484 -0.23998076 -0.021321122 -0.4524377 0.5953654 0.055854537 -0.2288177 0.10852816 0.24275759 -0.29235277 -0.068807766 0.12748773 -0.29939666 0.07903851 0.06826918 -0.082209565 0.28341177 0.18385364 -0.40044108 -0.08938892 0.22661185 0.3186962 -0.1308451 0.14175035 -0.18114598 -0.091905266 0.052502915 0.025338266 -0.16479875 -0.25666392 -0.074952416 -0.004477422 -0.29488385 -0.0694732 -0.20918852 0.094993815 -0.09404305 -0.06509296 -0.1814848
36 0.047034215 0.06213667 0.17658515 -0.044518355 -0.16151145 -0.18902603 0.10422454 0.03940254 0.062910706 0.039576884 0.09640497 -0.13424994 -0.027556932 0.26728022 0.025397286 0.19923554 0.6589568 -0.051043373 -0.0019032288 0.034971472 -0.085681066 -0.2150179 0.26337823 0.17648579 -0.53692645 0.8523588 -0.24004678 -0.023906842 -0.47759792 0.52537674 -0.0033639516 -0.20396449 0.15772897 0.28942472 -0.31661165 0.04541726 0.13307902 -0.31684288 0.13913183 0.1700213 -0.055320103 0.22997507 0.13204756 -0.43770275 0.04010099 0.1118503 0.26035655 -0.1737994 0.07872685 -0.19107671 -0.0863373 0.0522317 -0.016878622 -0.092270344 -0.37357026 -0.047432892 0.040261947 -0.24587461 -0.09803523 -0.2890713 0.21685126 -0.060916096 -0.05597762 -0.16836055
60 -0.03950064 0.10460975 0.0116613805 -0.052800648 -0.052038994 -0.11289424 0.110496856 0.039691657 0.06629274 0.06317743 -0.0403667 -0.22377068 0.03861745 0.09771836 0.035424594 0.16779624 0.53809077 -0.12135155 0.11208843 0.06806136 -0.027606642 -0.24408165 0.42956284 0.18110481 -0.6085575 0.7455442 -0.25350255 -0.06966456 -0.47730628 0.48044384 -0.04348651 -0.21961796 0.16043617 0.24340099 -0.33816293 -0.10503306 0.06112485 -0.29954708 0.034382522 0.22512059 -0.10472663 0.22477819 0.24993433 -0.44769254 -0.0235214 0.22417274 0.3697789 -0.19148935 0.19376679 -0.17849953 -0.06808601 0.11598287 0.0112576885 -0.10014529 -0.3206017 0.026202543 0.0073016062 -0.2750322 -0.089408904 -0.17423935 0.10679563 -0.14169765 -0.120053574 -0.22406644
49 0.0012260362 0.042801365 0.06505801 0.0030774504 -0.19449267 -0.15313779 0.022383193 0.026079351 0.1100525 -0.042814743 0.120493025 -0.19294125 -0.021712802 0.1365166 0.13510323 0.2464059 0.55077094 -0.14282708 0.014737446 0.19869366 0.05807659 -0.2811261 0.31166 0.23554859 -0.5925056 0.84347695 -0.2961427 -0.10133865 -0.40453365 0.56140757 0.037179995 -0.17201073 0.13062784 0.33755225 -0.3088082 0.049693357 0.103183895 -0.2844786 0.1594726 0.21618438 0.027815832 0.20328262 0.15444422 -0.4741246 -0.024182757 0.06657181 0.31352657 -0.14256932 0.07932917 -0.11119085 -0.11828812 0.06394616 0.048329104 -0.15708427 -0.3959697 -0.030430738 -0.092642896 -0.14131708 -0.11878005 -0.17720185 0.11771629 -0.03478434 -0.120872505 -0.15638596
46 -0.0971798 0.12797526 0.027207175 -0.038037565 -0.07288565 -0.26907972 0.13268316 0.09148638 0.02906325 0.07547388 -0.0022572586 -0.19753036 -0.050331134 0.1621819 -0.13184707 0.13974081 0.5289435 0.009598493 0.12123242 0.118740536 -0.050135028 -0.14468971 0.40806267 0.2094055 -0.53717417 0.8030145 -0.3491782 -0.081646584 -0.47059113 0.45087403 0.03694499 -0.2372037 0.11723412 0.24780837 -0.2797024 -0.031205852 0.10332253 -0.22476786 0.029333537 0.1542072 -0.12641168 0.42279056 0.29539305 -0.3525339 -0.06510258 0.28655028 0.40565485 -0.17711866 0.11600438 -0.17930786 -0.09495238 0.13218248 0.033821434 -0.12890656 -0.30318832 -0.07108719 0.022042772 -0.2590412 -0.041288923 -0.2095045 0.15142943 -0.20086017 -0.08211813 -0.21595336
37 0.20342785 0.038824726 0.23334962 -0.05819969 -0.10180519 -0.18549973 -0.03675835 -0.03220394 0.017005883 -0.014122161 0.08736047 -0.28817472 0.042595703 0.132956 0.09651482 0.23687841 0.5814314 -0.10331887 -0.04048263 0.07851293 -0.0054369513 -0.22490561 0.29395235 0.26490915 -0.5657351 0.8941367 -0.29501614 -0.12822238 -0.5511173 0.48063022 0.01184214 -0.16512537 0.024353705 0.31124756 -0.3158749 0.14958268 0.17005765 -0.35582703 0.16593516 0.13061902 0.05405673 0.15838537 0.1754479 -0.46945956 -0.043581326 0.04176163 0.29556328 -0.11203281 0.07223974 -0.088261664 -0.021551339 0.08575066 -0.01111083 -0.14159378 -0.25824788 -0.07619128 0.0908531 -0.23744297 -0.12050639 -0.19954862 0.16099198 -0.013087103 -0.1042928 -0.15009877
35 0.08248201 0.20121428 0.14382176 -0.055877894 -0.10850137 -0.1385594 -0.08677936 -0.0372724 0.06721854 0.031808697 0.09099305 -0.19547343 -0.03953084 0.11383381 -0.07804515 0.19388798 0.6011784 -0.0065080365 0.04603918 0.043128997 -0.04890497 -0.22718401 0.3304082 0.22541036 -0.5382172 0.88711715 -0.31372792 -0.09945997 -0.44767874 0.540707 -0.013735181 -0.23988307 0.1694169 0.2320772 -0.24399935 0.083939835 0.07580535 -0.30020583 0.11688428 0.16034374 -0.080048256 0.28738374 0.16774032 -0.29626405 0.02890108 0.23749669 0.31530723 -0.1363469 0.12463783 -0.12253936 -0.08160978 0.10218116 -0.0079192 -0.109556146 -0.37983498 -0.057720635 0.07094056 -0.28039405 -0.027489774 -0.30788463 0.22015417 -0.11371009 -0.056206543 -0.115567155
34 -0.016092801 0.11071317 0.062409624 -0.09686109 -0.054503173 -0.21605808 -0.051305044 0.023606628 0.14866616 -0.0180869 -0.0030161843 -0.17702289 -0.013112938 0.21654183 -0.056627646 0.20327131 0.55063754 -0.06623853 0.051833246 0.03986719 -0.065211296 -0.14873125 0.34820703 0.19657846 -0.5350599 0.89144826 -0.3352478 -0.17956306 -0.45663998 0.53944135 -0.046054654 -0.3165646 0.07605949 0.1741074 -0.31697455 -0.090640664 0.15666576 -0.3399438 0.057959106 -0.025364896 -0.07033318 0.31441957 0.34287918 -0.2501719 0.047215518 0.2453461 0.2565987 -0.10451573 0.19290468 -0.1565687 -0.0126022855 0.10203446 -0.061518703 -0.11889396 -0.36701173 -0.06740312 0.024404919 -0.2894814 -0.15481174 -0.17695029 0.20799938 -0.1516975 -0.013869495 -0.23158748
26 0.0870897 0.0910808 0.2144752 -0.0044974466 -0.08531467 -0.12901329 -0.07961522 -0.0099075865 0.055473976 -0.03201818 0.11197391 -0.2356129 -0.0087924525 0.2254721 0.01289046 0.3047655 0.54732305 -0.009699971 0.046032757 0.0023322236 0.031152252 -0.28233215 0.31005496 0.27381873 -0.5302022 0.8571024 -0.32003176 -0.087892815 -0.3704986 0.6180633 0.112188205 -0.18888031 0.12344995 0.27600023 -0.38775074 0.069132164 0.10091555 -0.29213724 0.1960592 0.09655772 -0.06389734 0.23081963 0.17036116 -0.43747818 0.020726632 0.1118027 0.34030652 -0.08310291 0.15289576 -0.119652875 0.0045668078 0.18579075 0.009547069 -0.09867718 -0.3875626 -0.04561446 0.057052393 -0.24457556 -0.044944413 -0.19913964 0.22502932 -0.0006742945 -0.0024151264 -0.05684099
61 0.00099908 0.107757 -0.008866953 -0.006167248 -0.15057516 -0.20253347 0.071485266 0.069967926 0.14253989 0.032836057 0.013064258 -0.1971987 0.001093561 0.1435227 0.009598086 0.14413433 0.45405287 -0.1030364 0.09607935 0.02206727 0.12888625 -0.2507514 0.40240362 0.18140787 -0.66693187 0.65603113 -0.28208145 -0.09534373 -0.45722422 0.49798778 0.004934419 -0.12791596 0.093166456 0.30122867 -0.39690885 0.022488732 0.025136916 -0.3297412 0.11176706 0.26119208 -0.046249054 0.18526305 0.335417 -0.42556107 0.017207606 0.14106637 0.35191628 -0.18518919 0.09461459 -0.23004808 -0.10390463 0.09436488 -0.0428175 -0.1613308 -0.23305514 -0.04998748 -0.119747154 -0.3426256 -0.15645072 -0.2863433 0.09383986 -0.089973666 -0.21922308 -0.22174153
62 0.080986865 0.059007898 0.03299045 -0.007540331 -0.24917744 -0.1306932 0.03351021 0.025081953 0.16628231 0.07708138 0.059541706 -0.18885067 0.015510923 0.16843513 0.16763182 0.13782577 0.46541518 -0.08156645 0.02334548 0.05808672 0.13846941 -0.3021299 0.4597303 0.17181891 -0.6451733 0.73608583 -0.28136322 -0.013906915 -0.4064084 0.4953199 0.0595074 -0.21606041 0.09505861 0.3327188 -0.23514277 0.10962908 0.097084016 -0.37124604 0.10910178 0.23347408 0.02356084 0.19850709 0.20055811 -0.47012788 -0.09656351 0.13326867 0.3779331 -0.13746141 0.13181034 -0.057226762 -0.12292181 0.051822204 -0.13684905 -0.20106663 -0.358498 -0.11495125 -0.07246448 -0.22736575 -0.089916855 -0.22763121 0.07416478 -0.052066434 -0.1471117 -0.26492724
38 0.139253 0.05368674 0.1392272 0.0597319 -0.08322124 -0.17199941 -0.027801074 0.042861804 0.11513324 -0.0585869 0.1935904 -0.27617383 0.12739642 0.17549734 0.14657637 0.30872416 0.52891874 -0.07658334 -0.05144139 0.06769372 0.035165325 -0.22976166 0.30507702 0.20884447 -0.65392786 0.8909799 -0.33703566 -0.15743726 -0.48439547 0.43656644 0.02708731 -0.18101309 0.09562549 0.31752267 -0.37331367 0.10087463 0.13214408 -0.24557078 0.16778111 0.29522678 0.10139689 0.15902321 0.19552496 -0.4513062 -0.056915917 0.025049191 0.32668847 -0.14083396 0.03756279 0.009935222 -0.08814524 0.00842131 0.022150887 -0.08501178 -0.41333574 -0.05606577 -0.04755816 -0.1056304 -0.118166484 -0.3229231 0.09327802 -0.038381428 -0.10863437 -0.047347777
59 -0.00624074 0.10485469 -0.051163197 -0.059746426 -0.038845368 -0.18067682 0.11360843 -0.06906544 -0.009523315 0.11530047 0.010099862 -0.2795377 0.09920193 0.1726044 -0.07482686 0.14502814 0.49971092 -0.09472258 0.13708526 0.043731112 -0.05108816 -0.18020238 0.40790454 0.1310511 -0.5593293 0.71005976 -0.20438623 -0.12678288 -0.4641145 0.53155607 -0.044642527 -0.20077696 0.13602325 0.2569155 -0.33279607 -0.18640001 0.12123987 -0.19216178 0.077138275 0.10676377 -0.063629165 0.320293 0.40012497 -0.36549294 -0.08405737 0.3434217 0.4290356 -0.19733824 0.15390602 -0.20419747 -0.06337969 0.13854288 0.024876993 -0.2033165 -0.3104514 -0.078769654 -0.053037975 -0.3023595 -0.07869384 -0.22054544 0.12366031 -0.16719872 -0.06049536 -0.33521655
72 -0.036865704 0.1395788 -0.06411018 -0.011209692 -0.031039532 -0.1701683 0.1337885 0.03635798 0.014426214 0.061983578 -0.046845533 -0.3033883 -0.030552085 0.18649815 0.09965591 0.21394368 0.4921715 -0.11166161 0.09139338 0.0799407 0.0543548 -0.23542471 0.36988348 0.121613435 -0.6383752 0.70852154 -0.18372579 -0.07206334 -0.39094672 0.5049375 -0.096088625 -0.101691894 0.07805358 0.28521854 -0.33191395 -0.06613779 0.034420777 -0.30093673 0.050459158 0.19959986 -0.15007475 0.25415644 0.37608302 -0.3907703 -0.15819637 0.23102543 0.42748275 -0.14197768 0.07818807 -0.20705654 -0.09100783 0.07692676 0.027425544 -0.1988235 -0.25956818 -0.08028602 0.049160466 -0.36489132 -0.048309118 -0.23338561 0.04959502 -0.13368012 -0.17156895 -0.3375287
50 0.18139227 -0.01279516 0.050585575 -0.055220947 -0.25339848 -0.16134691 0.055917464 0.030439423 0.07740797 -0.030220823 0.052264817 -0.20994483 0.12210801 0.22765042 0.20228094 0.23739174 0.541538 0.050070427 0.01533453 0.0834961 0.12771806 -0.36966497 0.36555618 0.2262302 -0.6324818 0.7453511 -0.2523853 -0.12568451 -0.4528394 0.50533634 -0.023949098 -0.16623692 0.09792788 0.23691031 -0.33580673 0.09470113 0.12640522 -0.30461344 0.18765005 0.30746466 0.04852564 0.25529292 0.24344139 -0.445803 -0.07173639 0.009887604 0.3269938 -0.1447082 0.07493251 -0.030117497 -0.20380232 0.014558449 -0.05504631 -0.1592827 -0.3380169 -0.060063057 -0.020862877 -0.17982796 -0.12467779 -0.31173646 0.06059918 -0.039939635 -0.11850246 -0.15272848
58 -0.07302657 0.037120275 -0.026817989 -0.07669639 0.0073466515 -0.20172372 0.015137121 0.14147858 0.034677796 0.07659037 -0.11429696 -0.27737138 -0.009782128 0.22625533 -0.02862707 0.27024055 0.49122557 0.007789136 0.25242028 0.04982444 0.0064126686 -0.13975406 0.5057752 0.023242384 -0.5077156 0.8491397 -0.2538245 -0.19058016 -0.50764185 0.5135513 0.049781557 -0.20844583 0.10637682 0.19462727 -0.25806904 -0.08256128 0.081028044 -0.19599767 0.16468832 0.022769686 -0.06795109 0.33835644 0.372982 -0.33654302 -0.063417286 0.39769453 0.3460642 -0.15664786 0.15497848 -0.13855828 -0.08345298 0.121331535 0.0518681 -0.16747259 -0.2727947 -0.09477279 0.06244094 -0.29046524 -0.02290492 -0.22468407 0.09988524 -0.15771174 -0.048015486 -0.29566118
28 0.19537665 0.020026576 0.2323524 0.026768235 -0.10710697 -0.19620222 -0.008736738 -0.0061956556 0.05020545 -0.05082088 0.20235033 -0.30294058 0.13329194 0.10224258 0.10046581 0.37232828 0.50837755 -0.06906815 -0.043763097 0.033263247 0.025428556 -0.32771754 0.28642836 0.2611354 -0.55461276 0.9338246 -0.32653144 -0.0652436 -0.5002111 0.44569284 0.133947 -0.07566276 -0.010923963 0.2870465 -0.4260634 0.038442202 0.1350969 -0.361876 0.11439186 0.26122764 0.062098987 0.17922579 0.18716425 -0.41711769 -0.025772374 0.044999905 0.29733738 -0.11570884 0.13518813 -0.0021656987 -0.063327536 0.051594783 -0.04005211 -0.040399536 -0.38983464 -0.11693849 -0.020284843 -0.083798364 -0.16360053 -0.20282756 0.3301626 -0.022646487 -0.13551216 -0.1681874
27 0.20013791 0.04868233 0.3051059 -0.049838874 -0.098563254 -0.1923942 -0.04913574 -0.021479838 -0.037790254 -0.08796056 0.16231629 -0.22023231 0.0832543 0.16467077 0.04191689 0.3508381 0.5680854 -0.009521921 0.046803404 -0.030862063 0.020108834 -0.30451226 0.27686885 0.25188652 -0.5243572 0.94571847 -0.33437094 -0.02867792 -0.52823496 0.56780094 0.15042953 -0.13527662 0.016332692 0.29813874 -0.3151937 0.119788066 0.15881677 -0.32984245 0.06947049 0.14748506 -0.032237962 0.2551698 0.11196998 -0.38246262 0.042921755 0.13086398 0.30754036 -0.107912265 0.11394835 -0.095846646 0.04792169 0.012919508 0.043166958 -0.064946495 -0.35631365 -0.08475533 0.019681409 -0.13930672 -0.072744384 -0.26380065 0.14247951 0.01857876 -0.09101739 -0.05207356
24 -0.008128233 0.15679747 0.18227696 -0.090314046 -0.074107066 -0.21595219 -0.0585913 0.041089777 0.10151198 -0.06092893 0.09484424 -0.1920765 -0.08473704 0.17545857 -0.100720175 0.2444805 0.5642723 -0.08027655 0.19558296 -0.04580027 -0.15115467 -0.18873024 0.2678179 0.2642893 -0.5653269 0.9403147 -0.32302925 -0.07876985 -0.35460123 0.5804535 -0.07181634 -0.3004579 0.051002223 0.14101386 -0.25829095 -0.001156829 0.057452686 -0.28923163 0.10535821 0.042896967 -0.09487872 0.39462322 0.2047469 -0.3110541 -0.09650292 0.28323284 0.25547028 -0.18048799 0.15840672 -0.1200118 -0.03967154 0.105222434 0.023470879 -0.10430764 -0.39409193 -0.06381833 -0.012983015 -0.24653666 -0.06604066 -0.20568568 0.255494 -0.14957987 0.019737145 -0.10415404
45 -0.040837377 0.14594787 0.010742287 -0.07136418 -0.07831636 -0.09719195 -0.014786358 0.110711835 0.13684794 0.052236143 0.09574756 -0.16937658 0.07210396 0.116956525 -0.052194484 0.20202895 0.49220604 -0.010654935 0.2162716 -0.00043437013 -0.09852232 -0.20343147 0.34173042 0.06429437 -0.58761746 0.9109925 -0.19585791 -0.11607575 -0.4987907 0.5473764 0.071811534 -0.20848165 0.13166825 0.12797038 -0.3399697 -0.095727205 0.06791443 -0.27358449 0.12673382 0.02956637 -0.13364807 0.38017714 0.3461908 -0.25999692 -0.048897464 0.3500824 0.28039616 -0.13421734 0.13116194 -0.26228034 -0.049470134 0.12006072 0.03622914 -0.23591252 -0.3674687 -0.06511213 0.07107815 -0.286631 -0.05593115 -0.15779948 0.1513484 -0.2640199 -0.033941306 -0.19428715
25 0.096645504 0.043059815 0.22879659 -0.017937964 -0.05546276 -0.19457057 -0.08857986 0.012070153 0.11903163 -0.029949693 0.1891704 -0.13692696 -0.022745715 0.18607773 -0.09997868 0.19482599 0.59449285 -0.0704335 0.12230613 -0.10846776 -0.09743426 -0.20957033 0.25376192 0.23874895 -0.57744193 0.9371356 -0.3733445 -0.13882367 -0.4501251 0.5494946 0.062119108 -0.22044766 0.105522856 0.18781824 -0.32379985 0.048566237 0.08773302 -0.31355953 0.08959346 0.059217446 -0.086859755 0.23346935 0.09249319 -0.38308653 -0.054465257 0.19553037 0.3974792 -0.13726652 0.17339028 -0.11164362 0.10748048 0.14409733 -0.046724457 -0.09536719 -0.35247105 -0.1562948 0.03168105 -0.26696026 -0.09811594 -0.22550693 0.27453426 -0.014306905 0.00545246 -0.042118575
39 0.1787015 0.09143455 0.23041207 -0.07715808 -0.22731829 -0.15680988 0.00629273 0.055871118 -0.013487183 0.1260844 0.27736074 -0.3385812 0.14570679 0.19596231 0.16320817 0.3741932 0.46909901 -0.10004466 -0.01711458 0.037142195 0.017706193 -0.25531247 0.32776576 0.28787345 -0.6199402 0.8237774 -0.32672635 -0.15555266 -0.48042807 0.5090688 0.19872758 -0.0023356283 0.042268913 0.30371895 -0.31771943 0.09897847 0.095703214 -0.36469865 0.24602675 0.27522588 0.055137314 0.2333513 0.2334252 -0.40650418 -0.02184375 -0.0411795 0.36842725 -0.17127064 0.025603367 0.02962005 -0.12054238 0.0043713152 -0.003559029 -0.21041474 -0.40821883 -0.070956096 -0.014930069 -0.09977716 -0.13498351 -0.20538823 0.15488383 0.004788944 -0.121852115 -0.0513963
70 -0.11657249 0.04887585 -0.10439336 -0.0021062512 0.008040927 -0.13541608 0.0550848 0.10507692 -0.039117992 0.1450195 0.057686348 -0.33104485 0.00049959717 0.1628988 -0.039244004 0.10700669 0.55380327 -0.028454464 0.22150345 0.0339456 -0.10229406 -0.19010031 0.3734631 0.009112613 -0.5907199 0.73378414 -0.2498028 -0.09885704 -0.54917026 0.46614638 -0.017426291 -0.22761112 0.03340279 0.31370524 -0.27309397 -0.23121075 0.14234665 -0.24811003 0.14866666 0.07020129 -0.07746243 0.38677165 0.3906237 -0.34497267 -0.09697864 0.29620752 0.45391637 -0.0744147 0.07573576 -0.19684617 -0.030950313 0.09408961 0.10179417 -0.13074484 -0.27066395 -0.0615153 0.00469474 -0.33539355 0.009257587 -0.22120793 0.10445343 -0.16852072 -0.14296302 -0.3975352
74 0.17694202 0.12738991 -0.1090076 -0.12300833 -0.18155025 -0.1935726 0.066576466 0.028879413 0.043262895 -0.10760785 0.012313852 -0.27033898 0.05027362 0.15582554 0.11858936 0.15227759 0.50276464 -0.042715494 0.090706274 0.13033853 0.10578491 -0.41358215 0.36499938 0.15020956 -0.7455621 0.66648805 -0.20066474 -0.07368446 -0.33351266 0.43882495 -0.023894938 -0.16608304 0.14295253 0.26833913 -0.17938447 0.07081492 0.12926462 -0.31324628 0.13027121 0.29540008 -0.024366569 0.28151855 0.3376953 -0.48634234 -0.029994551 0.13433197 0.32911634 -0.22654083 0.07716838 -0.13916078 -0.0953583 0.09582585 -0.035561725 -0.19991311 -0.2876683 -0.114139184 -0.14533103 -0.28201652 -0.10903941 -0.23398012 0.07452053 -0.051534943 -0.2430073 -0.22864778
71 -0.07758062 0.04112996 -0.13691695 0.061951578 -0.04495016 -0.20697127 0.011125666 0.10996173 -0.052579477 0.14487037 -0.006102323 -0.30770636 -0.031508286 0.14458138 0.03496207 0.16344655 0.49848583 -0.1476842 0.11710014 -0.018680964 -0.102913015 -0.27471504 0.41284466 0.10289123 -0.6378631 0.59636724 -0.23993218 -0.20822924 -0.48436818 0.50062674 -0.039509986 -0.064192295 0.055392243 0.27424037 -0.24623767 -0.091862 0.10790685 -0.29364806 -0.005123034 0.14346348 -0.07894472 0.27827287 0.4822968 -0.39222822 -0.03276457 0.22085541 0.40527138 -0.15028957 0.1594733 -0.21237157 -0.10981596 0.11730091 0.13366783 -0.14738853 -0.3254223 -0.16516712 -0.010374793 -0.3862143 0.007894375 -0.23067118 0.072973706 -0.17871362 -0.13845967 -0.37593624
51 0.19090436 0.043571915 0.14525703 -0.101703994 -0.3172861 -0.089973964 0.038853772 0.100705296 0.01074266 -0.08034971 0.13792792 -0.25833917 0.10331076 0.09026607 0.2638705 0.37573603 0.52341247 -0.087301545 -0.06173068 0.087935366 -0.004230928 -0.231644 0.3323753 0.2562041 -0.61389256 0.81948817 -0.3565588 -0.074516594 -0.51744664 0.42769092 0.10582884 -0.11228797 -0.006063019 0.26910558 -0.298991 0.09272402 0.097182706 -0.32832423 0.24690653 0.3085419 0.04168856 0.24644813 0.22403997 -0.4645232 -0.074308276 0.011442402 0.31756812 -0.12320352 0.01522081 -0.01709902 -0.19201954 0.008132523 -0.115740314 -0.14971551 -0.35045594 -0.012379879 -0.108810425 -0.10098185 -0.17773902 -0.32405213 0.16145784 0.002703137 -0.19141953 -0.20419757
17 0.14772354 -0.00025319846 0.24151139 0.007074728 -0.2064826 -0.18843631 -0.08158662 -0.09994246 -0.059376437 -0.12637207 0.11307666 -0.18404472 -0.07085435 0.22218995 -0.036144216 0.36236715 0.5800801 -0.091965295 0.098414116 -0.03232708 -0.048739005 -0.26461652 0.27756593 0.33760184 -0.52508473 0.94633687 -0.386235 -0.108540565 -0.48807994 0.5619237 -0.038943835 -0.14612107 0.076959714 0.21402463 -0.35427883 0.021875631 0.07072905 -0.337677 0.11453601 0.07704624 -0.12729724 0.26519558 0.089309305 -0.35294083 -0.02639613 0.21391939 0.34541407 -0.024908874 0.122040555 0.032918952 0.10990773 0.08940825 -0.015566513 0.020244874 -0.349775 -0.100433975 0.0663509 -0.20008688 -0.108223125 -0.1881125 0.2871626 -0.027054789 -0.08004927 -0.04125899
57 -0.09657062 0.038810104 -0.1181779 0.12940335 -0.008126088 -0.19014052 0.034983486 0.04934027 -0.054803655 0.14172718 0.007931526 -0.19970678 0.035740435 0.1896182 -0.06790942 0.19863708 0.50548244 -0.13126116 0.1540256 0.025061974 -0.13900475 -0.25058308 0.47672182 0.07586372 -0.52652586 0.77873087 -0.21833721 -0.22795229 -0.66124135 0.48870194 0.08273351 -0.2175029 0.1447038 0.24198891 -0.21979111 -0.14107102 0.09983427 -0.27224246 0.16817304 0.012245652 -0.12867984 0.50092745 0.46615073 -0.18827885 -0.13536885 0.294188 0.34465608 -0.13598245 -0.011705702 -0.22757813 -0.07759472 0.14022204 0.06776333 -0.19190578 -0.21397184 -0.061906658 -0.017533278 -0.36285305 0.029222265 -0.17957023 0.14680605 -0.20899417 -0.08868258 -0.34210736
33 0.0019485818 0.13285284 0.037462097 0.019021967 -0.037118133 -0.16697222 -0.10388945 0.098489136 0.003861544 0.056901336 0.026103698 -0.12573503 -0.079364635 0.2127915 -0.03924476 0.18212727 0.5840687 -0.012008643 0.22669512 0.008895828 -0.028370166 -0.068555675 0.26019993 0.11737322 -0.610321 0.9385418 -0.33873147 -0.16142745 -0.5510194 0.4843462 -0.046399876 -0.26376486 0.10545059 0.084739216 -0.31463936 -0.088334344 0.17390546 -0.37627527 0.19070277 0.0113090165 -0.1301755 0.38999215 0.20929518 -0.18407716 0.023537375 0.2747962 0.29210898 -0.1730387 0.1562205 -0.094757 -0.103735074 0.1878226 -0.017334528 -0.13614444 -0.35381445 -0.09973358 -0.020295959 -0.2648086 -0.048442706 -0.14889094 0.28755692 -0.12853512 0.08671178 -0.1990675
73 -0.018141998 0.06147 -0.10186656 0.016470488 -0.060853258 -0.23581691 0.12219238 0.05700691 -0.04172588 -0.06165403 0.022723688 -0.2729678 -0.024576683 0.18045717 0.09501316 0.090241045 0.5249741 -0.14732233 0.024094302 -0.0057805893 0.06447459 -0.24487942 0.49716312 0.020558149 -0.68999803 0.6825914 -0.18954298 -0.006446648 -0.3121647 0.52819276 -0.06586377 -0.10487078 0.08382769 0.3013753 -0.30277148 0.072334185 0.10902807 -0.32544276 0.027873067 0.27581677 -0.03938128 0.25054207 0.3861464 -0.41851944 0.014885293 0.18138045 0.34406778 -0.14923488 0.050689887 -0.16613291 -0.2065114 0.024859197 -0.03693916 -0.14688863 -0.3447056 -0.06973821 -0.06509033 -0.2759725 -0.06314825 -0.2227583 0.05334507 -0.07579874 -0.21295455 -0.3269077
63 0.025932955 0.06629267 -0.00046658155 -0.102751814 -0.26500374 -0.057764657 0.045997016 -0.0037441074 0.049866367 -0.06902909 0.1391073 -0.2477789 0.13991019 0.19798969 0.22117162 0.23770468 0.49604422 -0.20209709 0.00032010328 0.07682753 0.11723093 -0.32444993 0.45099574 0.115450084 -0.6787573 0.6941255 -0.29533514 -0.051645808 -0.32329777 0.4617709 -0.023721386 -0.16199744 0.09699172 0.3767701 -0.29922658 0.120294005 0.04859435 -0.30970055 0.16122842 0.27800977 -0.07583664 0.33257794 0.23055352 -0.4400262 -0.07220842 0.049188625 0.36662728 -0.18251967 0.06588369 -0.17430986 -0.18923491 0.0042670984 -0.12162095 -0.17795928 -0.39311692 -0.08754481 -0.07893339 -0.17192033 -0.20897672 -0.26849532 -0.012469243 0.026059655 -0.17350493 -0.15814911
44 -0.06095354 0.0580286 -0.06618489 0.034292217 0.0057873907 -0.19391221 -0.017917972 0.17680876 0.022783186 0.0759816 0.17903224 -0.27536553 -0.009555177 0.113613024 -0.06336519 0.24285647 0.50265414 -0.09614748 0.29824752 -0.008632156 -0.13766961 -0.16606048 0.46564576 0.053765766 -0.48669025 0.7739255 -0.3061265 -0.13998045 -0.5311264 0.5197195 0.019238614 -0.2758918 0.12093309 0.12866004 -0.3205884 -0.11194077 0.18175334 -0.34757683 0.13027404 -0.007076005 -0.005414973 0.5475437 0.46147758 -0.1514511 -0.10089236 0.3323226 0.32432273 -0.13073066 0.17811352 -0.18344933 -0.05248812 0.16882013 0.07901805 -0.21698135 -0.3284611 -0.02665421 0.07027796 -0.28597057 -0.017932408 -0.16913338 0.12116102 -0.23551245 -0.1047232 -0.1947608
82 -0.05444666 0.07258681 -0.15526466 -0.008831159 -0.058878172 -0.2389432 0.15017413 -0.04754204 -0.0060816268 0.07733155 -0.043979917 -0.26011813 -0.00073404075 0.13825715 0.08393091 0.13623364 0.4868454 -0.012139608 0.050622497 -0.027605716 0.03186947 -0.36333996 0.3923698 -0.03602311 -0.7979773 0.6152172 -0.27248204 -0.07920029 -0.3873068 0.48811263 0.028305812 -0.15212303 0.0014771735 0.23218335 -0.2159449 -0.050024692 0.09479821 -0.30256212 0.055621892 0.19935288 -0.13446184 0.2628536 0.49293888 -0.47041315 0.020637628 0.23811148 0.36736855 -0.20707698 0.10479636 -0.19736089 -0.07859684 0.049666107 0.20972253 -0.22405015 -0.24772763 -0.09468434 0.015602401 -0.292248 -0.026449328 -0.1815805 0.10245044 -0.051111773 -0.13338564 -0.3173329
19 0.20091532 0.055312913 0.36891523 -0.04118001 -0.16588956 -0.3051166 -0.071046986 -0.085167296 -0.022746872 0.019538464 0.19485848 -0.27098185 0.1008812 0.086803414 0.055811018 0.4336772 0.5155367 -0.058480795 -0.11637409 -0.037023656 -0.05619778 -0.42431405 0.28172573 0.28807724 -0.47019106 0.84541243 -0.36664304 -0.09784084 -0.5425774 0.6253982 0.06757395 -0.089855395 0.016075606 0.29296628 -0.38293037 0.08538919 0.15641977 -0.3271251 0.2353075 0.22753605 0.029229997 0.27679574 0.1345155 -0.35145915 -0.019711232 0.13117136 0.32649192 -0.15605351 0.029944547 0.016543426 0.051858816 -0.060808614 0.04104072 -0.05492374 -0.38269338 -0.08227762 -0.05352013 -0.20927429 -0.0709909 -0.10774501 0.18701202 -0.0047837445 -0.15423313 -0.041534405
29 0.24823357 -0.04073537 0.24019437 -0.062790684 -0.17690492 -0.23030289 -0.043309227 0.013175125 -0.0008265168 -0.006922035 0.18725689 -0.32825837 0.105034955 0.1658803 0.06133609 0.36936677 0.54398286 -0.05717946 -0.06447832 0.0036144706 0.03859553 -0.34445277 0.3541684 0.35664427 -0.52790225 0.8843612 -0.4370707 -0.21996929 -0.5126987 0.5456431 0.08496563 0.015034336 -0.124224655 0.31982517 -0.29852656 0.055758324 0.1745477 -0.33867443 0.2574754 0.30400485 0.042156596 0.18308128 0.16347115 -0.34405765 -0.04040428 -0.03804629 0.31479833 -0.18582262 0.042029876 0.043852903 -0.03412956 -0.0007105885 0.024105614 -0.14868958 -0.39876863 -0.014657136 -0.025995044 -0.07888205 -0.08010808 -0.23405126 0.23182996 -0.05839494 -0.10278268 -0.0794422
64 0.25236064 0.07016971 0.009634567 -0.059623443 -0.25607818 -0.14575118 0.059586864 0.10947325 -0.021250028 -0.06056486 0.17831562 -0.15239441 0.20041354 0.18828319 0.19044067 0.316123 0.35676205 -0.10176585 -0.049802564 0.04366074 0.037536785 -0.3261016 0.4136358 0.24632601 -0.7507763 0.7738882 -0.22968335 -0.08769755 -0.41407788 0.39333683 -0.01896964 -0.22444351 -0.012401462 0.3547061 -0.32350633 0.13633327 0.081229165 -0.34186274 0.2237847 0.27174693 0.003689845 0.20900936 0.23875111 -0.4332387 -0.065225974 0.11346288 0.3184082 -0.18242885 0.054343075 -0.023418082 -0.29442307 0.021148609 -0.100751065 -0.28972 -0.37356734 -0.10033644 -0.12205904 -0.14446765 -0.20056692 -0.28422967 0.08876805 0.034614965 -0.24023275 -0.11804643
80 -0.16983104 0.030790308 -0.14182161 0.09964986 0.09163141 -0.14317723 0.07248136 0.08858341 -0.133125 0.09556668 -0.013719444 -0.3147205 -0.06011613 0.19671418 -0.0018441869 0.22337149 0.4755719 -0.017763847 0.16560341 -0.04940463 -0.0924965 -0.33772323 0.4338823 0.074947484 -0.67164564 0.6277101 -0.24944861 -0.16276565 -0.47180703 0.463425 0.013706155 -0.16564187 -0.0030672862 0.26571372 -0.21926446 -0.14831847 0.09896938 -0.32077277 0.07798741 0.18241632 -0.031099195 0.45474875 0.42433313 -0.33299923 -0.021873154 0.30543333 0.47889787 -0.12956627 0.026902841 -0.23638329 0.0025947823 0.1459485 0.18679087 -0.16037315 -0.25228563 -0.113023505 0.098680325 -0.23672536 -0.08148606 -0.30253682 0.025916003 -0.26469994 -0.10873975 -0.42426893
32 -0.04993762 0.027752755 -0.03672568 0.0073678168 -0.050502546 -0.24993551 0.019524662 0.19046494 0.07763038 0.046925962 0.0883404 -0.25214577 -0.011169702 0.18926606 -0.15697655 0.22781684 0.5587513 -0.04837122 0.2145061 -0.007431665 0.014471382 -0.078029744 0.39582357 0.12351557 -0.54108876 0.8536916 -0.33234316 -0.1337004 -0.50990415 0.54691434 0.048115965 -0.28455177 0.06704557 0.16782682 -0.40859643 -0.07071972 0.03303147 -0.26168054 0.1507929 -0.06486738 -0.16130936 0.5637434 0.32508162 -0.22985533 -0.0684647 0.2982322 0.21372397 -0.14641346 0.09667276 -0.20096235 -0.0714088 0.14720912 0.058651455 -0.19791381 -0.32063037 -0.077690944 0.017086245 -0.2780654 -0.019180914 -0.100045875 0.24148943 -0.18338501 0.08387018 -0.11968776
15 0.026809208 0.023318203 0.23262373 -0.023764962 -0.10976671 -0.18160577 -0.09972293 -0.055756487 0.10785143 -0.046570502 0.15070494 -0.1850953 -0.058985054 0.119512334 -0.04156147 0.1811457 0.60843766 -0.09450348 0.2352731 -0.16764256 -0.11792978 -0.17024453 0.13550058 0.20559037 -0.6004315 0.976107 -0.37066457 -0.11421147 -0.3763588 0.57200986 0.00062446063 -0.23546994 0.06400343 0.10318973 -0.38072562 0.0772525 0.04315284 -0.4138206 0.22375336 -0.049637444 -0.173687 0.3633595 0.1712798 -0.25910863 0.018265646 0.34627682 0.3603697 -0.12860784 0.08882075 -0.07296032 0.04308336 0.14682682 -0.03633732 -0.05212539 -0.32041287 -0.036608323 -0.052005637 -0.29245153 -0.10308986 -0.2012342 0.26650438 -0.024060937 -0.01952611 -0.087094985
69 -0.13018873 0.010965504 -0.21349008 0.077471256 -0.016124694 -0.13692443 0.06117576 0.08544891 -0.05679204 0.10920149 0.09544662 -0.25643343 0.0026745652 0.03674214 -0.0013702142 0.17153715 0.51405835 -0.09533262 0.19904621 -0.02926239 -0.11037427 -0.21197133 0.5705645 0.04918101 -0.5798054 0.6577449 -0.22688808 -0.23989151 -0.58643574 0.5701908 0.04394306 -0.19412537 0.11140932 0.25708634 -0.24024726 -0.21420771 0.010522218 -0.21115299 0.20057754 0.064020336 -0.07417586 0.49893317 0.48904112 -0.33130243 -0.034750253 0.29033983 0.4600414 -0.20791496 0.11579452 -0.10878615 0.09745242 0.11487037 0.13215052 -0.23450145 -0.13288468 -0.11220412 0.099006355 -0.300899 -0.022126703 -0.28658414 0.106757 -0.27227256 -0.039264772 -0.4092285
40 0.14271434 -0.012249501 0.15857145 -0.15133464 -0.15884016 -0.27613407 0.1020651 0.016928457 -0.13573852 -0.009310259 0.22315155 -0.30863518 0.17377658 0.13554324 0.15008047 0.46693498 0.5297391 -0.050475918 -0.09594688 0.06276775 -0.0047032274 -0.31526762 0.3786796 0.2459914 -0.61810976 0.893784 -0.34975746 -0.1177933 -0.5143548 0.41021836 -0.0020723015 -0.10682976 -0.10468887 0.2293228 -0.24558082 0.14443512 0.11977413 -0.3454724 0.29908973 0.27075222 0.10330065 0.21948 0.17793556 -0.42291784 -0.1189161 -0.13150257 0.32985482 -0.20721248 0.09769369 0.035234902 -0.20482904 0.060877 -0.049879655 -0.17750785 -0.34192005 -0.09844932 -0.1858126 -0.08791146 -0.17962417 -0.34154916 0.088766426 -0.00064610865 0.002669354 -0.096864335
18 0.26794487 -0.026397033 0.32659966 -0.08591544 -0.117844634 -0.20643446 -0.037647944 -0.14819846 -0.081358105 -0.07752278 0.22908641 -0.19124703 -0.039199565 0.2180758 -0.016614532 0.36973894 0.50699824 0.049041018 0.14609052 -0.017541708 -0.054846875 -0.2623285 0.28621247 0.28305623 -0.564054 1.0286274 -0.3605226 -0.1993351 -0.46659973 0.53922606 0.009586647 -0.1306063 -0.036477286 0.30111614 -0.41174033 0.04433566 0.15437846 -0.39379618 0.1363473 0.14944936 -0.07403051 0.23192784 0.08964539 -0.34502795 0.005638161 0.1682773 0.34471443 -0.07111689 0.03694289 -0.04303389 0.12264538 -0.019994324 0.06544077 -0.07904853 -0.29195344 -0.01733836 0.018627731 -0.09944332 -0.11238726 -0.14121167 0.24021642 0.029462602 -0.104246825 -0.05697364
81 -0.030061299 -0.008005409 -0.11410455 0.0015629436 0.01877342 -0.20669627 0.14491755 0.047480073 -0.15012793 0.099329226 -0.04661289 -0.35666203 0.053090863 0.035162695 0.021854369 0.15053803 0.5600287 -0.02691935 0.15546699 -0.062035408 0.053056624 -0.36709788 0.40267336 -0.0678067 -0.65056956 0.6428896 -0.22896701 -0.1111413 -0.34488338 0.5390125 -0.12677592 -0.12896235 0.11240067 0.26631445 -0.15181452 -0.13569753 0.016597686 -0.26791176 0.11497379 0.1723453 -0.10771349 0.3282567 0.34327766 -0.44929874 0.007309864 0.28139192 0.42332017 -0.14399813 0.004976752 -0.13059698 -0.06384004 0.1662907 0.2463001 -0.22597855 -0.31085032 -0.17240071 0.019586697 -0.35592678 -0.053030413 -0.22864428 0.073423915 -0.18714422 -0.19062768 -0.4224643
16 0.09940503 0.015847584 0.26490766 -0.10237387 -0.07304271 -0.09153611 -0.07922702 -0.115155816 0.0027499625 -0.027128965 0.27409548 -0.20452368 -0.06301161 0.24557209 -0.04064202 0.23279224 0.69995177 0.017852023 0.18347853 -0.12688547 -0.12153095 -0.23582427 0.19907969 0.27384675 -0.59762293 0.9096356 -0.45016614 -0.20775136 -0.355119 0.56993556 -0.019030657 -0.2825805 -0.012524682 0.24228306 -0.39575914 0.06588578 0.040406335 -0.40923965 0.08245414 0.031222865 -0.14741567 0.29496974 0.11189114 -0.36145613 -0.019444466 0.2512397 0.30981824 -0.05385598 0.09057049 0.022800006 0.06925887 0.102493815 -0.04899628 -0.025241649 -0.3181699 -0.108009286 -0.011280357 -0.23401937 -0.113233194 -0.1629104 0.24017823 -0.077207856 0.10647916 -0.07143576
30 0.2574356 0.010817608 0.23722622 -0.069757335 -0.25438046 -0.32210806 0.08779119 0.024992105 -0.0609092 0.15101424 0.27518833 -0.33421433 0.19315575 0.2070267 0.16422449 0.40858158 0.42898414 -0.02890074 -0.12738232 -0.014075229 0.059336524 -0.25300518 0.43112883 0.29118004 -0.58616453 0.9139397 -0.35313174 -0.15949437 -0.49019903 0.5572554 0.10059754 -0.11645002 -0.09216469 0.28385848 -0.2402356 -0.0055435863 0.23296587 -0.32501218 0.3623927 0.29721707 0.10175416 0.10908699 0.16418767 -0.35992226 -0.09076783 -0.013424001 0.2948187 -0.12049695 0.15551965 -0.011276368 -0.121374205 0.09665447 0.016717182 -0.11298731 -0.35504484 -0.050309986 -0.13490526 -0.12530562 -0.153016 -0.27789754 0.14302514 0.011827726 -0.2017081 -0.02017217
56 -0.11034537 0.11355589 -0.27091578 0.16558565 -0.07693919 -0.19755085 0.06599583 0.18258661 -0.025091596 0.08309107 0.07773775 -0.27902344 0.036692932 0.19705504 -0.00071439 0.188571 0.5941402 -0.0068557574 0.25332877 -0.05836896 -0.16470067 -0.21934918 0.43712464 0.14128226 -0.4844111 0.8345194 -0.22240785 -0.08716733 -0.64015776 0.4456298 0.018687315 -0.31833994 0.067386135 0.16199742 -0.32772678 -0.21524844 0.073606044 -0.20147254 0.24968356 -0.065818034 -0.09065924 0.5764048 0.55018044 -0.24363017 -0.060657937 0.2689206 0.3071299 -0.20568098 0.09876229 -0.14426807 0.07241976 0.09720784 0.10713569 -0.16634618 -0.25138652 -0.08480211 0.09141613 -0.20356226 0.018368065 -0.21075453 0.14036445 -0.18841912 -0.10565194 -0.2437529
75 0.058274116 -0.03864612 -0.118012585 -0.05386012 -0.25658473 -0.22583422 -0.018690119 0.039156664 0.14198644 -0.00883864 0.036106575 -0.23270139 0.09190196 0.17469922 0.1956434 0.19950855 0.45756593 -0.18073495 -0.026274353 -0.041327905 0.024753848 -0.39342815 0.45528305 0.07629891 -0.80586934 0.71342653 -0.19375764 -0.023027748 -0.28060758 0.34119257 -0.07222083 -0.094555095 0.1469248 0.30568728 -0.28364828 0.18695556 0.17393067 -0.34169552 0.10508041 0.33847716 -0.15724228 0.31261554 0.25626436 -0.4475645 -0.07747435 0.05650575 0.30575535 -0.21070401 0.08105512 -0.10407649 -0.18453042 0.024290442 -0.026148748 -0.19139078 -0.32124025 -0.012337037 -0.12551731 -0.30640757 -0.1915212 -0.18406852 0.043369543 0.09650188 -0.3120225 -0.22910328
68 -0.16968238 -0.023234412 -0.21906267 0.14796887 0.05690215 -0.18182735 -0.02814549 0.15820864 -0.059135288 0.10732125 0.1164504 -0.3076809 0.0026611877 0.16720958 0.0013993685 0.18838044 0.5476001 -0.00596083 0.22971037 0.046422914 -0.20337011 -0.2673874 0.53058046 0.051337436 -0.5839788 0.65830904 -0.26298627 -0.14431438 -0.7680099 0.51428366 -0.027143056 -0.17736113 0.13537441 0.18108705 -0.27100292 -0.07843633 0.14486717 -0.22555345 0.30216393 0.077906035 -0.1979654 0.49700132 0.49136466 -0.19709654 -0.114522025 0.34048438 0.38209197 -0.06646205 0.053426996 -0.11420857 0.056066267 0.11038488 0.055850804 -0.24665625 -0.2083107 -0.11729294 0.16049334 -0.20215763 0.002669014 -0.21937788 0.14776628 -0.3204735 -0.069886684 -0.3018379
52 0.10574561 0.0032917284 0.11418035 -0.06568344 -0.28510818 -0.274549 -0.03938194 0.11748858 -0.0147969425 -0.0118692815 0.25868288 -0.20385608 0.19802867 0.06602483 0.2367674 0.39228502 0.430433 -0.0066459356 -0.03274585 0.07049927 -0.023749985 -0.3278486 0.4147509 0.28516063 -0.76267743 0.7658227 -0.36790773 -0.020008173 -0.46231806 0.34402168 -0.045994367 -0.06824536 0.023602685 0.30089638 -0.31122395 0.09062675 0.16664231 -0.2584723 0.19543491 0.19978431 0.08962161 0.2264927 0.21892762 -0.4881842 -0.09477669 -0.117234126 0.4006536 -0.15353271 0.065685295 0.08212063 -0.2105702 -0.01616634 -0.06763013 -0.29412705 -0.36279136 0.025090817 -0.16950797 -0.15781195 -0.3310085 -0.34592426 0.15276508 -0.039060574 -0.1244863 -0.13753854
23 -0.008832847 0.10874991 0.005771802 -0.11740502 -0.04095337 -0.18114577 -0.09670637 0.18791758 0.08730922 0.02043482 0.0011512701 -0.21966586 -0.020738317 0.15453537 -0.1126559 0.2973212 0.6215596 -0.099041075 0.33443263 -0.07756055 0.042386297 -0.11440541 0.23503278 0.14821638 -0.5827678 0.93382424 -0.3238542 -0.11205137 -0.49308196 0.46721685 0.002037111 -0.28876007 0.120484315 0.04665822 -0.3466248 0.06803851 0.18158169 -0.36567637 0.1763195 -0.077449515 -0.25947884 0.49693283 0.28217605 -0.22148402 -0.04575502 0.23401175 0.31241652 -0.13083844 0.15122847 -0.04658169 0.11856672 0.21463032 -0.033708993 -0.20394747 -0.41928017 -0.11640154 -0.07838764 -0.26911747 0.046135534 -0.03435282 0.25720438 -0.27521917 0.020010194 -0.09978344
76 0.18248047 0.09668475 -0.06292012 -0.091729335 -0.2010638 -0.06472834 0.0033601227 0.079749234 0.030959038 -0.043569937 0.076845646 -0.17307511 0.1606364 0.22014584 0.19518514 0.30612975 0.4907305 -0.097187415 0.034134574 0.039969694 0.08954091 -0.29531965 0.5035953 0.17836517 -0.698151 0.6864565 -0.34523714 -0.024710873 -0.3695855 0.4057572 -0.03737834 -0.09497289 0.05582121 0.33948418 -0.2315363 0.28052294 0.12888232 -0.33469653 0.21861303 0.23180938 -0.0800601 0.24048512 0.31359115 -0.42635038 -0.020986915 0.026025046 0.2633157 -0.16535659 0.045880467 -0.036911886 -0.20942755 -0.039298605 0.005591463 -0.27988568 -0.39860198 -0.0038900801 -0.24629444 -0.22439776 -0.2754972 -0.3226336 -0.053732943 0.046478767 -0.2891605 -0.2637833
43 -0.14419061 0.06629632 -0.23350312 0.04152863 -0.097550705 -0.100955434 0.043537416 0.2920249 0.019019451 0.0751365 0.13923097 -0.2598208 -0.006253533 0.2753949 -0.08787823 0.13172914 0.51952964 0.002962917 0.22090545 -0.020876575 0.05556878 -0.19658689 0.40601102 0.16812044 -0.5126539 0.87619936 -0.3115652 -0.13173841 -0.6893153 0.4762796 -0.014398582 -0.17821305 0.12601767 0.15598993 -0.3585272 -0.103386484 0.09884088 -0.2343247 0.28985387 -0.086657494 -0.12825087 0.5630918 0.43784395 -0.20575145 -0.069452465 0.3513368 0.2450837 -0.1898777 0.08018461 -0.1420393 0.06757461 0.23425148 0.029389918 -0.1944362 -0.2557675 -0.03370638 0.10188788 -0.2967308 0.08375736 -0.13678648 0.18281034 -0.17173001 -0.017064497 -0.18079625
10 0.14383017 -0.0654879 0.3535846 -0.02739238 -0.103861704 -0.14959508 -0.09250074 -0.20185252 -0.050582506 -0.06660081 0.2809781 -0.22178851 -0.053413335 0.1736753 -0.017318977 0.2704244 0.6150242 0.0021207829 0.16004962 -0.12582752 0.038079802 -0.40211952 0.3218787 0.32249233 -0.6052423 0.951182 -0.44945118 -0.20096575 -0.39312592 0.4723783 0.015031681 -0.20861343 0.07210121 0.32310542 -0.48577672 0.06816311 0.15683381 -0.3399509 0.12893024 0.018598884 -0.14969149 0.28454325 -0.029096058 -0.26210576 -0.038007375 0.18592396 0.2709511 -0.08121402 0.0873373 -0.015584774 0.07121873 -0.0051689944 0.051929258 -0.06897536 -0.32946068 -0.08206867 -0.010169385 -0.25569528 -0.087943435 -0.16355914 0.2770982 0.02645154 -0.010162777 -0.079752535
20 0.18930505 -0.0038874382 0.3251264 -0.14162084 -0.18854523 -0.30513725 0.0031687869 -0.055612873 -0.118271746 0.03500205 0.21982823 -0.34562147 0.07869147 0.18863635 0.1610311 0.36409947 0.46713635 -0.021059494 -0.112618975 -0.059941232 0.029871255 -0.2811116 0.3015213 0.29920387 -0.571934 1.0021787 -0.4645826 -0.23129244 -0.5545077 0.48977897 0.070520744 0.10291392 -0.038891252 0.3675379 -0.36699605 0.020781508 0.24098681 -0.34462723 0.20194031 0.2841315 0.090647 0.24626182 0.16456196 -0.333498 -0.079627335 0.11660778 0.34700504 -0.18636867 0.12522481 0.05679204 0.015467512 -0.061816193 0.041245084 0.009280918 -0.2913448 -0.056472354 -0.06508093 -0.05016424 -0.012954077 -0.14556079 0.23030339 -0.081850395 -0.10864631 -0.0037829573
87 0.092831336 0.04891214 -0.30295202 -0.024474751 -0.16270585 -0.19847326 0.09797759 0.016639577 -0.031910583 -0.09332783 0.021467278 -0.38870952 0.061821006 0.19172335 0.08809581 0.21304815 0.44762564 -0.13415013 -0.04979268 -0.21991016 0.14226924 -0.29332602 0.4699505 -0.12291547 -0.8202493 0.61810505 -0.36529544 0.026735995 -0.2607263 0.5021171 -0.11907011 -0.098652154 0.12676166 0.19201455 -0.26639807 0.067831375 0.17672934 -0.33123735 0.04607337 0.45537126 -0.18983902 0.2717301 0.4110265 -0.43417117 -0.057588425 0.14710283 0.26935184 -0.14757335 0.05820276 -0.099292986 -0.07627639 0.048955135 0.15946876 -0.07977613 -0.3020395 -0.060801562 -0.02907002 -0.42762548 -0.28892556 -0.20856968 0.040929858 0.038811598 -0.24310878 -0.28462422
21 0.24879457 -0.092467785 0.3122191 -0.06169159 -0.15160672 -0.26803678 0.030909637 0.00091391365 -0.09088338 0.08150973 0.2207668 -0.30724075 0.16306254 0.18935293 0.12915352 0.43999663 0.42904282 -0.09068535 -0.14323784 -0.055392113 0.03529748 -0.32700154 0.36032066 0.37109086 -0.5695548 0.9876594 -0.51632917 -0.09382442 -0.43503243 0.5486615 0.051090762 0.15878078 -0.10870715 0.2876285 -0.39585304 -0.03407539 0.2817127 -0.35846058 0.33442014 0.30334172 0.15233926 0.20744944 0.22770765 -0.29910687 -0.11225729 -0.0028780198 0.32295612 -0.19615525 0.049961615 -0.05807554 0.0012449898 0.035109945 -0.04508863 -0.1329091 -0.28194022 -0.11581174 -0.07651679 -0.084023505 -0.10548366 -0.20756674 0.116571605 -0.089568734 -0.13051273 0.032646235
86 -0.054266438 -0.011857244 -0.24007608 -0.06128651 -0.13208316 -0.30368656 0.15797986 -0.0064883167 -0.07890463 -0.060121182 0.00511728 -0.31673062 0.06761549 0.11149971 0.13741145 0.15478487 0.49618307 -0.09146131 0.11569072 -0.21234334 0.063432306 -0.2666193 0.46600673 -0.09204965 -0.7796815 0.59412503 -0.3624219 0.08066499 -0.2900086 0.58308005 -0.050894175 -0.06870231 0.046001513 0.22490941 -0.1713188 0.08651265 0.105086215 -0.36399528 -0.026809575 0.40408772 -0.19496906 0.2492349 0.40253872 -0.46968156 -0.03958749 0.18910968 0.3685837 -0.2194176 -0.13703999 -0.2428374 -0.068323016 0.09429639 0.24098375 -0.23232946 -0.3719252 -0.096530475 0.080037005 -0.39759615 -0.17658277 -0.113428816 0.026507013 0.04898245 -0.21315971 -0.36433795
79 -0.14224884 -0.04747376 -0.23545553 0.031171503 0.0673236 -0.1780804 0.015378953 0.13854933 -0.11763932 -0.02953377 0.041123062 -0.35892546 -0.029792449 0.097310975 -0.046094444 0.18126005 0.53887737 -0.06901653 0.14727838 -0.048661962 -0.14073792 -0.33667746 0.5442472 0.11588153 -0.6600506 0.63840777 -0.17746414 -0.16297132 -0.6914804 0.46048284 0.09410865 -0.2287852 0.14058007 0.20033613 -0.17572986 -0.2874767 0.09825062 -0.33493435 0.34892273 -0.027797323 -0.17663494 0.50927806 0.49191403 -0.35060528 -0.07639926 0.36469865 0.40315872 -0.21907222 -0.022269668 -0.098518826 -0.04509716 0.032370754 0.30510435 -0.15889886 -0.19325778 -0.207618 0.058889348 -0.11904893 0.0767314 -0.2776542 -0.03552195 -0.32919735 -0.046485793 -0.34819165
8 0.1578119 0.027705317 0.23836103 -0.02512515 -0.16241118 -0.2474067 -0.11541469 -0.053164396 0.05053947 -0.039962694 0.3021618 -0.2648631 -0.19828965 0.16756465 -0.08248544 0.21272862 0.624401 -0.09043902 0.23069446 -0.088732384 -0.030121803 -0.21600851 0.22629413 0.35705096 -0.63287073 0.92272896 -0.3701308 -0.089060836 -0.2800706 0.5712672 -0.052344773 -0.2837756 -0.03526427 0.06378555 -0.4571287 0.1654309 0.037774917 -0.40194517 0.18158767 -0.1654009 -0.18575281 0.29925418 0.1424033 -0.23794852 -0.08070477 0.35222977 0.41865915 -0.15529224 0.07371273 0.0076523973 0.09436295 0.07989243 0.017036816 0.0094967745 -0.39207566 -0.041069336 -0.027224585 -0.23579624 -0.07389781 -0.22165689 0.26404825 -0.1224159 0.13240643 -0.21060577
14 0.07500015 0.08047967 0.26658997 -0.04508133 -0.16775465 -0.17270847 -0.12458879 0.035150178 -0.012332795 0.088325515 0.23147018 -0.09140092 -0.2166828 0.13559245 -0.11723419 0.16242859 0.67809266 -0.0101541225 0.15919991 -0.09982483 0.04691888 -0.1161055 0.27406096 0.2100131 -0.69534594 0.89258915 -0.39432392 -0.12783104 -0.3821813 0.5757569 -0.073039316 -0.3095608 0.0864775 0.0014099199 -0.4750413 0.15012516 0.03666442 -0.3159876 0.27115974 -0.1331616 -0.13393849 0.48676035 0.17664248 -0.26203436 0.015728334 0.30281106 0.28354305 -0.19980045 0.09894041 -0.011021924 0.11909948 0.21404082 0.0063911313 0.010831347 -0.35662118 -0.0941494 -0.08756087 -0.35097834 -0.104931146 -0.07176067 0.25063124 -0.14887318 0.058109064 -0.1523413
85 -0.08650343 -0.027664946 -0.20383327 0.06380735 0.047248024 -0.32373103 0.08285652 0.122255705 -0.11541948 0.035787877 0.044427633 -0.28707927 0.006012335 0.043863814 -0.005607521 0.22780366 0.49320003 -0.06658218 0.15605156 -0.14746293 -0.0935135 -0.2700921 0.41924888 0.031072512 -0.77824223 0.53454804 -0.25811696 -0.13647756 -0.4452055 0.58358866 -0.10815925 -0.13516358 0.107508466 0.35621724 -0.1785411 -0.17063768 0.029497579 -0.19847108 0.1534136 0.16523026 -0.063736446 0.3320443 0.4252447 -0.4063658 -0.025740048 0.29364017 0.44282022 -0.23998538 0.063111775 -0.17995098 0.03209477 0.034380868 0.19586697 -0.16180389 -0.23643418 -0.1668512 0.18693352 -0.24087267 0.029292213 -0.17865467 0.10860338 -0.27267563 -0.2172237 -0.5542609
83 0.11146427 0.1813792 -0.26464188 -0.023504648 -0.18269776 -0.19276415 0.0503515 0.08766199 0.011353423 -0.1831203 0.08681025 -0.35584286 0.025431251 0.28510198 0.14918998 0.24280313 0.43524286 -0.03642009 -0.02715151 -0.07397354 0.05879484 -0.38896203 0.52896345 -0.009631965 -0.76153475 0.6607381 -0.24905181 0.14289258 -0.27462178 0.5052537 -0.120795496 -0.05872261 0.10281919 0.27607384 -0.348898 0.13031235 0.09732652 -0.2991436 0.040673602 0.33289233 -0.088849835 0.2795908 0.3099958 -0.36134633 -0.0031936287 0.073156685 0.37276062 -0.1670112 -0.10651025 -0.17982489 -0.08608222 0.068381056 0.029143853 -0.27382842 -0.31638733 -0.023608062 -0.17630433 -0.33722305 -0.18466857 -0.19928563 -0.011154267 0.13409851 -0.17609726 -0.32034698
55 -0.18823339 0.017007217 -0.21887839 0.15984058 0.11535177 -0.1641691 0.0888315 0.21971947 -0.03792344 -0.039153274 0.27413195 -0.30542856 -0.0066027627 0.16484594 -0.06797277 0.16303861 0.5198755 -0.1102342 0.21430957 0.0032421448 -0.035045166 -0.2588782 0.5977685 0.039865267 -0.53559226 0.75543237 -0.17722578 -0.1880517 -0.73345155 0.46746793 0.105897106 -0.34858975 0.1596919 0.25850326 -0.1812551 -0.1105487 0.12510641 -0.3344367 0.34627482 -0.047896184 -0.12922484 0.5833591 0.5076834 -0.21429853 -0.12736717 0.31626406 0.35245922 -0.2384552 0.017176606 -0.09657732 -0.007845648 0.17243642 0.13500313 -0.20525552 -0.2077449 -0.084169835 0.13769647 -0.17737265 0.01847671 -0.057452496 0.11719202 -0.23170584 -0.06124943 -0.3196033
41 0.18431975 -0.026519584 0.20947632 -0.09489197 -0.17879574 -0.29783466 0.10548689 0.021314017 -0.04235311 0.084760055 0.1987088 -0.24745457 0.1284208 0.030768968 0.28210047 0.44080916 0.40803474 -0.010306437 -0.14661413 0.08134226 -0.06426146 -0.18448618 0.4138331 0.34786287 -0.6299498 0.9635444 -0.33890703 -0.08764638 -0.4615613 0.4580712 0.064306326 -0.007031113 -0.107525565 0.353579 -0.2576097 0.053009324 0.2152819 -0.42133254 0.44472426 0.32605335 0.09365686 0.16600837 0.27032 -0.24264303 -0.15308589 -0.10892906 0.40934768 -0.24040617 0.091188245 0.0758552 -0.09854973 0.06619874 -0.05891024 -0.17219172 -0.5101306 -0.092358135 -0.18137212 -0.08920685 -0.16627815 -0.30507973 0.0959675 0.022104993 -0.116227575 -0.09285435
91 0.06348185 0.08908637 -0.30106348 -0.09102694 -0.21681263 -0.27603 0.0075962613 -0.015892327 0.028304137 -0.14524134 0.10605344 -0.4180376 -0.07169927 0.10600676 0.13353692 0.30885503 0.5195222 -0.043245595 -0.011353463 -0.31772533 0.075595856 -0.3108823 0.50441015 -0.09680026 -0.77147025 0.6196986 -0.44051653 0.10812558 -0.21178141 0.5177324 -0.15905571 0.0021799118 0.19637595 0.23135503 -0.1568061 0.01766654 0.24488531 -0.2729061 0.009823627 0.38420635 -0.25350493 0.21466583 0.5059041 -0.40664667 -0.099260874 0.18992265 0.35544434 -0.27373275 -0.14210106 -0.21801041 -0.08807556 0.12638034 0.13962382 -0.21989991 -0.306263 -0.14772424 -0.008461722 -0.32489553 -0.18377182 -0.20093822 0.023120094 0.20830733 -0.25346562 -0.49541152
90 0.01789313 -0.02993735 -0.27149594 0.086361855 -0.11295807 -0.30860895 0.022373812 0.030514171 -0.11482033 -0.034370624 0.05168662 -0.49764702 -0.04948111 0.12068107 0.1431374 0.293057 0.36072314 0.039248303 0.077682935 -0.28820738 0.08363891 -0.23953034 0.4550179 -0.11576475 -0.727312 0.5837802 -0.5416652 0.17993502 -0.20272332 0.51235175 -0.18383756 -0.16954209 0.1378255 0.25756505 -0.19159788 0.081341416 0.20260817 -0.4226699 0.03562513 0.38964897 -0.18926491 0.23945832 0.45204523 -0.5565957 -0.058267538 0.20744394 0.3493633 -0.28883785 -0.0483413 -0.24587238 -0.0590198 0.064727835 0.3318565 -0.33000943 -0.3224558 -0.2285164 0.13751721 -0.41459286 -0.21791193 -0.1465406 0.16414522 0.069429204 -0.26752 -0.44596523
65 0.111713275 0.0002822228 -0.05495748 -0.13640021 -0.26415703 -0.20153348 0.025165595 0.049408555 -0.018948907 -0.097400635 0.19815937 -0.25877237 0.26179898 0.14789236 0.25522262 0.35888526 0.40325677 0.05819634 -0.10458438 -0.03257376 0.0064290552 -0.25959557 0.50162387 0.25850868 -0.73343295 0.7456669 -0.26793402 -0.054003753 -0.4227778 0.36548868 -0.039487172 -0.15616994 -0.027510904 0.37982988 -0.28195107 0.2907239 0.06513792 -0.2681048 0.17799239 0.14977016 0.008157845 0.33460584 0.19706944 -0.4032772 -0.106268704 -0.0823497 0.3459471 -0.14190142 0.054144252 -0.07256604 -0.2618366 -0.03522576 -0.07516696 -0.24237746 -0.5045556 -0.12209995 -0.30607244 -0.1710735 -0.2861202 -0.31754988 0.09104603 0.05016932 -0.21320112 -0.20916742
9 0.042906146 -0.085016645 0.383634 0.0187584 -0.12093527 -0.22553849 0.037272792 -0.020591166 -0.10021889 -0.14581333 0.30369872 -0.21229073 -0.18121913 0.16418055 -0.059547618 0.2675266 0.7189465 -0.021945572 0.13501053 -0.15959564 -0.06574508 -0.36075032 0.22243485 0.3039957 -0.61912465 1.0068074 -0.32461843 -0.2255589 -0.29779878 0.5285044 -0.056871947 -0.19830741 0.036588166 0.24145368 -0.5185328 0.20613676 0.12200176 -0.37628463 0.12301423 -0.12777798 -0.19803928 0.24816434 0.09895529 -0.19449167 0.06502583 0.3583106 0.38256925 -0.11472089 0.17440993 0.021844799 -0.026567819 0.09085797 0.03179851 -0.041268393 -0.28099307 -0.14475848 0.01795507 -0.19160523 -0.14947914 -0.09690731 0.24409057 -0.02474185 0.06270272 -0.08758184
31 0.30974638 0.015880719 0.31642914 -0.06566617 -0.15546799 -0.33144465 0.0621379 0.10536709 -0.0961018 0.1700585 0.2993891 -0.37266022 0.17488067 0.10243341 0.19213927 0.44866616 0.2806173 -0.10114248 -0.100194775 0.015819343 0.01919799 -0.26489902 0.36957574 0.28339583 -0.5872206 1.0074346 -0.54116786 -0.17521992 -0.48714802 0.54404426 0.017399585 0.070922665 -0.045325253 0.26435095 -0.2762746 -0.044614118 0.23980302 -0.30389297 0.39559227 0.30590367 -0.00048253924 0.1435538 0.17296384 -0.32339105 -0.20244843 -0.12342306 0.45573562 -0.19684337 0.11464737 -0.01378383 -0.115229756 -0.051510822 -0.035616226 -0.14236432 -0.34009045 -0.03887803 -0.14652498 -0.10066805 -0.10931121 -0.32357222 0.15425389 -0.06880142 -0.09412217 -0.039646998
53 0.12391478 -0.026054282 0.20392007 -0.09211706 -0.25234106 -0.14044634 -0.01773763 0.0027402132 -0.13436243 0.023109268 0.29891765 -0.1810914 0.36962724 0.13229892 0.27541885 0.50388634 0.34281036 -0.022071 -0.16062017 0.07833388 -0.011179634 -0.2416518 0.4208464 0.293384 -0.688705 0.83490914 -0.34457326 -0.083732635 -0.42538667 0.44956762 -0.022323798 -0.104209214 -0.11831085 0.2944203 -0.30795613 0.040410127 0.095941946 -0.31867766 0.31555477 0.2794609 -0.010595297 0.2536577 0.28629905 -0.45933178 -0.1910455 -0.17080647 0.38757128 -0.2350667 0.099965334 0.068976484 -0.25263187 0.19932818 -0.073708236 -0.2111999 -0.36766303 -0.079584956 -0.1563302 -0.17335519 -0.12419883 -0.349211 0.15258989 0.010735813 -0.09800208 -0.123826176
67 -0.14953814 -0.1105922 -0.2954677 0.09535065 0.046191733 -0.12328105 0.036987066 0.24502316 -0.033013515 0.10188122 0.24473403 -0.30600688 -0.009861526 0.059284907 -0.02646143 0.24725853 0.4875514 -0.005610113 0.17613044 0.04608059 -0.14152199 -0.32214126 0.58104897 0.118710205 -0.5003746 0.80017126 -0.19486754 -0.10870394 -0.7402021 0.56668997 0.059785705 -0.34750843 0.15907763 0.15334383 -0.21495421 -0.12786418 0.03001367 -0.25922248 0.32987076 0.10349116 -0.15093361 0.56656456 0.49648508 -0.2098507 0.025014749 0.29250017 0.45726764 -0.100775644 -0.04790159 -0.14951934 -0.018425576 0.053213164 0.18827645 -0.15715352 -0.0018872678 -0.21913272 0.083308175 -0.17340131 -0.0062824823 -0.18725681 0.07497992 -0.35228625 -0.02624871 -0.41851857
88 0.13885663 0.048715312 -0.39980486 -0.042121287 -0.25028095 -0.23749878 0.044295408 -0.0012230212 -0.027423492 -0.09312593 0.05761164 -0.38074487 0.032088924 0.28745905 0.084837325 0.30579075 0.4850416 -0.03847921 -0.066276595 -0.21891138 0.042518523 -0.23268384 0.56224114 -0.17634694 -0.895 0.6757995 -0.36893708 0.13906868 -0.20668639 0.47998488 -0.104286835 -0.0066703255 0.24107172 0.23006196 -0.24510105 0.13173784 0.11242678 -0.42095828 -0.011476891 0.32878792 -0.052896596 0.25695595 0.40625054 -0.39116716 -0.013357611 0.06483546 0.3015057 -0.21204622 -0.0942189 -0.12536906 -0.054683987 0.09701613 0.03761232 -0.22842771 -0.2861516 -0.14790684 0.027574886 -0.31554598 -0.2859329 -0.06409167 0.065628044 0.11817216 -0.28288153 -0.33905837
94 0.036890253 0.086732365 -0.33566698 -0.029166607 -0.18761401 -0.30074915 0.11915897 -0.050240636 -0.04209395 -0.11255539 0.15033554 -0.43276235 -0.105895214 0.09116072 0.045538466 0.29691365 0.2862681 0.022749271 -0.02272593 -0.28239983 0.07664635 -0.24214455 0.51040745 -0.07041093 -0.81224537 0.62542176 -0.5752395 0.055316195 -0.27340913 0.5886295 -0.1186748 -0.023230286 0.19829278 0.19385579 -0.14979233 0.05801573 0.23643641 -0.49579418 -0.0067581167 0.42566994 -0.2974385 0.2973271 0.4812634 -0.5385065 -0.002207391 0.16671678 0.27384877 -0.27413988 -0.17966968 -0.14414473 -0.09472881 0.19350763 0.22779204 -0.24758703 -0.3485178 -0.2592145 0.15712358 -0.39444306 -0.22864528 -0.040421084 0.05022478 0.15112792 -0.22998607 -0.5283563
11 0.24462765 -0.07767578 0.35538974 -0.11534981 -0.1596638 -0.31131947 0.0417556 -0.001718425 -0.16000852 0.094788626 0.23331945 -0.46653643 0.086906776 0.10711208 0.21067034 0.19883873 0.35677963 -0.115259685 -0.18911222 -0.07709508 -0.024142597 -0.38877892 0.46663287 0.26091006 -0.44528732 1.0783085 -0.50483763 -0.1157684 -0.53306055 0.63461107 0.14839327 0.017450914 -0.1310481 0.39705923 -0.40764806 -0.033450384 0.24422169 -0.30262452 0.19840501 0.26262084 -0.009356464 0.11076582 0.2033862 -0.24681555 -0.15409079 0.047735076 0.41041285 -0.24753569 0.070915654 0.065844044 0.046318628 -0.016793631 0.0026923812 -0.120072015 -0.35178876 0.03291532 -0.16376449 -0.0024670314 -0.078272335 -0.23578349 0.23503405 -0.14284106 -0.1461861 0.12337978
93 -0.0054582595 0.08026185 -0.3813453 0.010177583 -0.1904674 -0.37494144 -0.01620694 0.03367379 -0.11553801 -0.10681374 0.058914326 -0.37746778 -0.13945769 -0.008931044 0.23976521 0.28141636 0.4198694 -0.047817446 -0.008885064 -0.42343065 0.090783924 -0.31978735 0.37144268 -0.1451309 -0.7589524 0.6232885 -0.6332347 0.0866406 -0.39007917 0.6398798 -0.11950482 -0.19139619 0.12447902 0.26743254 -0.09992604 -0.030813606 0.117041685 -0.46194893 -0.06315406 0.45689946 -0.12586318 0.26415047 0.4852099 -0.54928213 -0.09975584 0.2546234 0.28802916 -0.31066126 -0.12252584 -0.20501302 -0.16188113 0.2032434 0.3393246 -0.20143865 -0.2459068 -0.19570026 0.17248446 -0.36649442 -0.31480592 -0.09688296 -0.021040125 0.23553926 -0.1423939 -0.50854963
22 0.22422028 -0.03640234 0.2633357 -0.024511598 -0.17658108 -0.32233617 0.08543261 -0.0049608354 -0.21496145 0.18481189 0.27457535 -0.4045706 0.17860724 0.038322512 0.2209767 0.400997 0.39207384 -0.15717396 -0.10275548 -0.09377403 0.007779083 -0.3077634 0.4389488 0.32281587 -0.53958017 1.0767276 -0.5847019 -0.18542811 -0.44227263 0.54984635 0.0788854 0.11030755 -0.14454013 0.30819938 -0.2781665 -0.020858506 0.4001457 -0.31538796 0.26825953 0.31993654 0.006389327 0.14721118 0.10495563 -0.34058794 0.036315687 0.030986574 0.33972177 -0.27296817 0.07819358 -0.019162433 -0.017717447 -0.060351744 -0.024437979 -0.119466804 -0.32899326 -0.08577205 -0.26105595 -0.13599086 -0.06185648 -0.25259385 0.12988636 -0.15304926 -0.12830554 0.18234786
84 -0.14782879 -0.18428628 -0.31022537 0.031639308 0.21589254 -0.21096191 0.0695306 0.21987711 -0.16241397 0.19437928 0.017871508 -0.3401054 0.010151245 0.01736281 0.04494567 0.23304558 0.45067066 -0.15084791 0.15865162 0.012733627 -0.19047193 -0.30592573 0.4890906 0.1086204 -0.7227662 0.59083676 -0.16219515 -0.119619615 -0.6728533 0.6480397 -0.0542868 -0.24735388 0.112610124 0.34203786 -0.20128156 -0.18827826 0.10070941 -0.33425823 0.20722339 0.0041665477 -0.08643353 0.4984115 0.39457643 -0.2769059 -0.011419315 0.4054303 0.33064014 -0.20739077 -0.12715568 -0.08513184 0.08439231 0.057406377 0.24045825 -0.16154039 -0.21487366 -0.24767047 0.15606555 -0.15067638 -0.004859043 -0.3288265 0.15813501 -0.22028628 0.00025445264 -0.4907824
3 0.16876699 -0.15861276 0.37524652 0.031400308 -0.20422246 -0.22228922 -0.065160535 -0.22406922 -0.061186586 -0.063221656 0.32165885 -0.18976729 -0.053841434 0.2947962 -0.048186857 0.29830092 0.5532232 -0.038554743 0.24618474 -0.1082067 -0.078506276 -0.45147443 0.23388495 0.3478787 -0.60814923 0.9947866 -0.4285817 -0.18761599 -0.34953523 0.5780598 0.022868458 -0.15256077 0.10118556 0.3437079 -0.46009925 0.13830164 0.14386068 -0.25965303 0.096421525 -0.10192095 -0.11823706 0.114299215 0.16511467 -0.171507 0.013794985 0.3344209 0.43563992 -0.18095174 0.13481064 0.13155204 0.13426821 0.140131 0.07625897 0.056318834 -0.3709723 -0.014710602 -0.033096652 -0.2751217 -0.067604885 -0.11311962 0.12056177 0.022408988 0.05715507 -0.11230267
92 0.009945289 -0.0147009585 -0.36003554 -0.008781357 -0.15318926 -0.40262157 0.09934678 0.1174627 -0.15954643 -0.118178494 0.01366694 -0.3240265 0.026351413 0.15186661 0.20632379 0.20500204 0.36443454 0.07077331 0.03748528 -0.25455284 -0.012432753 -0.27454665 0.4033633 -0.100033306 -0.7508931 0.6184958 -0.5260361 0.007881205 -0.2217371 0.63740766 -0.13402234 -0.107054934 0.17416081 0.23770317 -0.1709929 0.0122247515 0.20478107 -0.53111136 -0.026713101 0.38058418 -0.2510174 0.21800962 0.49230164 -0.6065336 -0.08984079 0.262475 0.2651867 -0.23560525 -0.23514278 -0.28883392 -0.05582265 0.21909057 0.37525493 -0.07765851 -0.34252262 -0.20450194 0.12905633 -0.34713346 -0.13393083 -0.14139386 0.056786116 -0.033054303 -0.15723023 -0.46377817
66 0.2281757 0.060878485 0.042044573 -0.101776764 -0.2880324 -0.18516667 0.018003466 0.1535797 -0.0799686 -0.006263135 0.25473663 -0.0766019 0.25943935 0.118855484 0.285091 0.40835416 0.4541443 0.045265038 -0.07789649 0.08251735 -0.04377343 -0.29684624 0.4929343 0.26640403 -0.69037807 0.8106747 -0.30147126 -0.09461889 -0.4203694 0.34437665 0.046177287 -0.03457544 -0.059577014 0.29135993 -0.3589386 0.06733753 0.11743159 -0.30395016 0.26311216 0.19387423 -0.037997384 0.30027488 0.12628736 -0.4586992 -0.18665214 -0.12036409 0.37441033 -0.14003049 0.14717513 0.099039055 -0.22608921 0.15227519 0.042063724 -0.30430287 -0.44368964 -0.14087279 -0.2618487 -0.1584291 -0.39806557 -0.28121608 0.006047781 0.07416851 -0.1798568 -0.22125387
7 0.115147166 -0.06740944 0.19227605 -0.04115126 -0.1365053 -0.13389164 -0.17507496 0.1985836 -0.019253708 0.08037033 0.20395769 -0.1785663 -0.23250894 0.17859401 -0.19116509 0.28059363 0.77467555 -0.08567816 0.1575426 -0.027539881 0.065081686 -0.098207965 0.08575387 0.17315383 -0.8070253 0.9346298 -0.40040272 -0.1334449 -0.35054234 0.56054723 0.014987607 -0.41496938 -0.075879715 -0.101178534 -0.40556508 0.15886118 0.1529487 -0.3140052 0.175738 -0.17001761 -0.27087697 0.48405808 0.17035574 -0.21743408 -0.052444387 0.33398625 0.37015787 -0.27220204 0.11673682 0.08439949 0.07674895 0.24216363 0.021421993 -0.081168585 -0.3579204 -0.07203775 -0.11409585 -0.26533434 0.013674407 -0.09322951 0.24530526 -0.23756418 -0.021969737 -0.11879093
78 -0.135415 -0.15410233 -0.34019735 0.05333632 0.21014746 -0.24509004 -0.016136553 0.09951357 -0.056383375 0.06570035 0.18808696 -0.29284948 -0.079251826 0.144982 0.12809 0.20484526 0.537947 -0.18987505 0.1897371 -0.026359398 -0.19964626 -0.30746174 0.5034276 0.2680894 -0.6681572 0.61284643 -0.17482203 -0.11940367 -0.78441715 0.5403037 0.056276537 -0.22782962 0.21467724 0.23404905 -0.20946357 -0.16750984 0.13506967 -0.2451707 0.3222109 0.10229285 -0.14010854 0.601419 0.40411946 -0.23268455 -0.011153913 0.37060034 0.30448446 -0.06289397 -0.01268448 -0.19618964 0.008713657 0.1884822 0.3219455 -0.21080384 -0.09842601 -0.23513089 0.09833012 -0.03386227 -0.061447617 -0.25726876 0.13520694 -0.38921234 -0.06522399 -0.49755654
95 0.08570822 0.14540946 -0.38539338 0.051710606 -0.27195922 -0.2565421 0.08657433 -0.023348387 -0.036899656 -0.16424395 0.04467092 -0.47907558 0.0056683407 0.053226292 -0.014337438 0.35482416 0.3024639 -0.112657554 -0.05361823 -0.4188861 -0.013147297 -0.28767088 0.4290695 -0.15823528 -0.81094533 0.7184929 -0.6512293 0.16774018 -0.31653723 0.6133167 -0.2387564 -0.15546848 0.30404592 0.15053959 -0.24067189 0.06640535 0.17354773 -0.46644634 -0.08067761 0.47572973 -0.28997183 0.30450824 0.5022977 -0.54226846 -0.04773258 0.14681827 0.29190058 -0.30144885 -0.24132544 -0.17538227 -0.17866921 0.1437037 0.1713383 -0.23336433 -0.3011499 -0.29204634 0.12352665 -0.24270958 -0.30741602 -0.14711232 -0.0792628 0.15079461 -0.17630638 -0.45460004
54 -0.1879903 -0.11472844 -0.3402398 0.025389364 0.028758446 -0.16455674 -0.023389988 0.19056325 -0.0027065086 0.01262547 0.2825999 -0.15889294 -0.13496317 0.2625829 -0.04153604 0.35341054 0.5157818 -0.07031403 0.32442075 -0.037057184 -0.07172217 -0.24695514 0.5113568 -0.026180983 -0.47591203 0.86707973 -0.19762409 -0.078663275 -0.8275728 0.4785306 0.10685453 -0.30478677 0.1725122 0.25064212 -0.24352409 -0.102792665 0.13276596 -0.22547808 0.43168658 -0.115335904 -0.22248414 0.5313604 0.708849 -0.25007278 -0.17862876 0.2769057 0.24458957 -0.20983256 -0.043999232 -0.11077899 -0.01805054 0.16244434 0.13967183 -0.14452451 -0.080758594 -0.2331725 0.027337428 -0.18402772 0.07772643 -0.21311362 0.24083261 -0.2817214 -0.09036003 -0.14114101
97 0.03895318 0.22410372 -0.5005924 0.0897036 -0.17851537 -0.3957776 0.12445658 -0.0066015515 -0.11394613 -0.11793644 0.047328543 -0.3797185 -0.04768413 0.087924704 0.25559995 0.3018621 0.42620605 0.08378065 -0.11439915 -0.4589485 -0.053580392 -0.25391462 0.3489607 -0.05907635 -0.6377985 0.62882304 -0.73411214 0.10464501 -0.21686894 0.75628287 -0.16278906 -0.19434217 0.26824573 0.260986 -0.2295393 0.10445171 0.3114259 -0.5644468 0.02443959 0.36339363 -0.23939224 0.22791131 0.43935838 -0.63808185 -0.07975741 0.25478992 0.2368234 -0.35958013 -0.20506221 -0.12693486 -0.15677181 0.23024394 0.25819668 -0.21937765 -0.371893 -0.18971518 0.13922149 -0.34522343 -0.17729823 -0.1287117 0.052808 0.06794166 -0.26479292 -0.6111879
96 0.033391982 0.018358659 -0.4056993 -0.018561056 -0.19071923 -0.45932844 0.018027997 0.11241608 -0.057939224 -0.039699625 -0.047845203 -0.4035913 0.06355035 0.0672854 0.20889638 0.27867714 0.45109445 0.09972886 0.1325973 -0.4295151 -0.027355745 -0.27998236 0.4721545 -0.16627154 -0.7277205 0.5743752 -0.7448097 0.12142948 -0.2012307 0.68096775 -0.1367896 -0.21570337 0.17310683 0.3505189 -0.16277708 -0.022065323 0.19991302 -0.537524 0.03957854 0.39566875 -0.26130682 0.199584 0.34984687 -0.58512324 -0.010022813 0.25099123 0.38637993 -0.3218685 -0.18020539 -0.13126963 -0.22636159 0.17865676 0.34220016 -0.21207866 -0.1783311 -0.18821819 0.23200421 -0.33564004 -0.10043117 -0.1370819 0.031474687 0.047067847 -0.08901798 -0.5504647
2 0.09485678 -0.10610213 0.33997646 0.028359845 -0.26271048 -0.14205295 -0.032302074 -0.15999487 -0.21152842 -0.009066031 0.29249772 -0.30325446 -0.16365252 0.15610181 -0.10920442 0.25120625 0.78819346 0.05604228 0.31522077 -0.10449172 -0.076808214 -0.36710885 0.11753775 0.4145692 -0.65881336 0.95991284 -0.43074235 -0.23977485 -0.3129426 0.5828052 -0.078789815 -0.29835087 0.12690195 0.20398566 -0.49471655 0.2496847 0.081151836 -0.39387694 0.04198745 -0.07518782 -0.21250845 0.13969424 0.12320016 -0.15227969 -0.17567782 0.3551431 0.38089186 -0.14476445 0.17660469 0.037339285 0.1246695 0.056100957 0.07423051 0.02094296 -0.2712019 -0.16963631 -0.13415812 -0.19421178 -0.13742055 -0.066598475 0.16946736 0.039040938 0.07051791 -0.054114092
12 0.30457705 -0.09509732 0.38604486 -0.009983462 -0.08459884 -0.39170364 -0.029146563 -0.053165182 -0.15887092 0.2215693 0.1493757 -0.5890243 0.23488206 0.09297109 0.20198576 0.3213316 0.432011 -0.0054423907 -0.17298959 -0.06928529 0.12627268 -0.35013694 0.43124288 0.33899868 -0.43869 1.1714704 -0.5303398 -0.24881771 -0.40258458 0.61396486 0.03666199 0.27186158 -0.078511246 0.3428693 -0.23240376 -0.013061492 0.22815727 -0.4377674 0.3036335 0.21991676 -0.11586682 0.11459991 0.24845198 -0.26849633 -0.08437848 0.1651292 0.33518693 -0.29201898 0.043291733 -0.033380453 -0.06726005 0.07456917 -0.0015522318 -0.14062713 -0.27488485 0.06598745 -0.2527662 0.05228697 -0.17520201 -0.103397824 0.23502344 -0.18661012 -0.18858038 0.1380565
77 -0.06818491 -0.095380984 -0.42867506 0.027975798 0.247673 -0.121553704 -0.024814976 0.21688029 -0.116338894 0.19500826 0.28211325 -0.27056083 0.057643797 0.1939234 0.036216166 0.24782228 0.60953736 -0.10124955 0.18977194 -0.031404097 -0.08993854 -0.36170223 0.6154445 0.23966329 -0.5352708 0.688749 -0.1631388 0.020212086 -0.8361621 0.5910865 0.09703135 -0.37429357 0.2976921 0.1885146 -0.19474794 -0.119443975 0.055841804 -0.1906252 0.3209917 -0.03237893 -0.16846122 0.6049558 0.47654927 -0.22133178 -0.07185546 0.2979007 0.40766957 -0.18423684 -0.1024584 -0.04837152 -0.011355828 0.04433505 0.24075091 -0.15507896 -0.13817412 -0.1696595 0.1564581 -0.095103934 0.027966924 -0.22238171 0.11922743 -0.3203106 -0.027355071 -0.38806105
98 -0.06902123 0.04954401 -0.49123517 0.024706451 -0.2700971 -0.2127869 -0.03826726 -0.14323057 -0.051620502 -0.098631024 0.00586982 -0.48027596 -0.107833974 0.15852112 0.08639691 0.38306066 0.26583502 0.07638425 -0.044643316 -0.47121793 0.031880166 -0.15655676 0.42437443 -0.06630027 -0.8093674 0.68225074 -0.6917334 0.091509774 -0.36370787 0.7805916 -0.117807396 -0.13646299 0.41854343 0.1711259 -0.21784529 0.07708073 0.13259228 -0.5834067 -0.018646441 0.3123806 -0.22034016 0.23350275 0.3471986 -0.6190142 -0.01611667 0.13353036 0.3349464 -0.4761739 -0.19410464 -0.2545308 -0.19737849 0.15066311 0.23016958 -0.2197352 -0.38620374 -0.13023409 0.14009044 -0.33600566 -0.30647275 -0.018096374 -0.047503818 0.15393771 -0.32563755 -0.60701406
42 -0.17522648 -0.060287036 -0.21578012 0.07033869 0.024584588 -0.115574375 -0.06230158 0.29341942 -0.07625525 0.053853616 0.34436843 -0.29223627 -0.04299466 0.33911404 -0.101420105 0.20393881 0.6319286 -0.049326606 0.3807268 -0.040547356 0.06822481 -0.22935347 0.47878602 0.15773675 -0.44009328 0.9697893 -0.17492098 -0.02322605 -0.68634045 0.42007312 0.098590866 -0.38433054 0.08434316 0.18287642 -0.26571104 -0.11614893 0.1870047 -0.20240185 0.33769113 0.05890838 -0.18821198 0.5341393 0.69648385 -0.16754054 -0.05502971 0.2644752 0.0672661 -0.30422747 -0.008816016 -0.083833784 0.047309734 0.14309594 -0.03295322 -0.27748007 -0.13636677 -0.0981913 0.02815029 -0.27269852 0.027890539 0.018191412 0.19795853 -0.34802264 0.002517846 -0.26369497
99 -0.050167754 0.075463876 -0.43864235 0.078732595 -0.19445437 -0.24203566 0.037590176 0.078096405 -0.09926041 -0.05366944 -0.003974503 -0.5163433 -0.1324311 0.07362966 0.062062405 0.32302913 0.32590905 0.15358253 -0.03605467 -0.49965224 -0.100354664 -0.24565843 0.37132657 -0.041597154 -0.7906685 0.6061227 -0.6729651 0.067098275 -0.34777206 0.79073185 -0.11143206 -0.11714445 0.3078213 0.22300665 -0.25397533 0.052567117 0.38205284 -0.4950907 -0.022136567 0.49104977 -0.27522942 0.26206636 0.37151906 -0.6884726 -0.18342787 0.17929576 0.26863375 -0.445433 -0.27161825 -0.19988975 -0.26941118 0.33321202 0.106756724 -0.21497846 -0.2969651 -0.148635 0.20363772 -0.41192034 -0.36268365 -0.16574962 -0.02250665 0.20876446 -0.17525189 -0.59946007
1 -0.025949908 -0.032709323 0.2540286 -0.062537104 -0.23613296 -0.123425096 -0.21353135 0.11486981 0.031063102 0.19063878 0.23244415 -0.26161507 -0.24064136 0.20023619 -0.11133386 0.22474171 0.82976234 -0.17942609 0.2459907 -0.11593537 0.12916778 -0.1658294 0.09860749 0.20990363 -0.8216192 0.9746135 -0.3068066 -0.18335329 -0.2476842 0.5790002 -0.08620046 -0.37918767 -0.09086091 -0.049724676 -0.66459733 0.23004648 0.105021656 -0.3041558 0.13431273 -0.15502855 -0.22759485 0.40287128 0.061976846 -0.121961385 -0.032860152 0.34668657 0.33906478 -0.3250111 -0.047722794 0.14158121 0.10333828 0.32744396 0.053117927 0.028238224 -0.38546315 -0.24378964 -0.09582091 -0.24425787 -0.085255645 -0.13419636 0.18288946 -0.22838421 -0.07713896 -0.105682015
13 -0.066215046 -0.12256854 -0.16580215 0.032253303 -0.17557694 -0.2300093 -0.16310143 0.21864936 -0.011431528 0.13837215 0.26652002 -0.20763987 -0.1921071 0.16267018 -0.22353528 0.36588067 0.75804263 -0.17146216 0.14422591 -0.037539724 0.17385426 -0.06567617 0.039656408 0.11935478 -0.64547473 1.0359823 -0.3054254 -0.10144354 -0.4972408 0.49326414 0.021736579 -0.42502907 -0.20247848 -0.031044507 -0.5099317 0.16880217 0.010222325 -0.32744586 0.23371701 -0.026274057 -0.24027328 0.5000691 0.3042018 -0.2086645 -0.10261756 0.45283028 0.12607734 -0.2890893 0.08168556 -0.0051667304 0.14096092 0.26799902 0.05034137 -0.32729316 -0.22237091 -0.009553838 -0.098658524 -0.29290667 0.16930512 -0.035830606 0.11818561 -0.3037662 -0.021831542 -0.1417434
89 -0.19083425 -0.06021923 -0.3049624 -0.055711612 -0.028536655 -0.3010051 -0.07809395 0.14667745 -0.31201008 0.025896672 -0.04320179 -0.23505728 0.17386492 -0.045818083 0.01651365 0.24668293 0.43214723 -0.077286065 0.11466107 -0.2236098 -0.11952711 -0.26614606 0.37452117 0.055234425 -0.82188267 0.57127124 -0.3464739 -0.039424274 -0.40073296 0.65326726 0.04052354 -0.21933328 0.19815381 0.44275126 -0.21223703 -0.08222571 0.18854617 -0.29318345 0.21872143 0.21379493 -0.109974615 0.44959188 0.35567197 -0.39281133 0.014522656 0.2701382 0.3363459 -0.09177914 -0.06502268 -0.1455599 0.16972448 0.15884744 0.42715514 -0.2386961 -0.09321817 -0.12477789 0.1831364 -0.087418765 0.0042100535 -0.30927265 0.05292952 -0.27917266 -0.028702885 -0.725205
6 0.051357865 -0.03663518 0.18773437 0.04134218 -0.26860967 -0.1921751 -0.19709918 0.12083293 0.012113664 0.17379618 0.31177932 -0.18337855 -0.30057237 0.08964656 -0.040033367 0.3745677 0.9041611 -0.16121465 0.18426253 -0.11483027 0.21859969 -0.02722989 0.06888341 0.1474494 -0.8235097 0.89860374 -0.26809743 -0.108742155 -0.36743817 0.552495 -0.052635588 -0.5269414 -0.15601084 -0.021450823 -0.45270634 0.14245453 0.262242 -0.39031518 0.112103805 -0.17764176 -0.3120079 0.46821362 0.18358633 -0.27499846 -0.023718018 0.3508224 0.26033545 -0.14095077 0.016589379 0.08133517 0.15311499 0.3382003 -0.037555866 -0.13434166 -0.29552555 -0.042560298 -0.13174465 -0.21495278 0.021946492 -0.12976755 0.12771277 -0.38700122 -0.0067176376 -0.10653264
100 0.060950927 0.005035603 -0.47421607 0.16477852 -0.2183382 -0.32105964 0.09859083 -0.15617195 -0.000995999 0.0028385266 -0.04338566 -0.4522325 -0.07575132 0.032753177 0.04651255 0.30309173 0.24550813 0.10708362 -0.04998115 -0.504023 -0.20208114 -0.17160729 0.4725669 -0.012579408 -0.7502393 0.7950497 -0.7664003 -0.0024398393 -0.31456897 0.8426122 -0.1649023 -0.13424553 0.26544398 0.04241003 -0.29800093 0.06850224 0.31891215 -0.38665277 -0.10974735 0.43599656 -0.30292574 0.33081332 0.45432797 -0.7710128 -0.107693784 0.12707938 0.23054868 -0.412818 -0.2711847 -0.25445002 -0.27511033 0.24610822 0.042737115 -0.31978825 -0.32960844 -0.18866383 0.11853275 -0.21705122 -0.21452598 -0.1193939 -0.07979997 0.3378162 -0.29457307 -0.716228
5 0.061234724 -0.056854017 0.12218157 0.032476433 -0.16277775 -0.2559881 -0.17911857 0.26767072 0.09671603 0.14995505 0.3216954 -0.2895758 -0.27936786 0.24097414 -0.12861228 0.3262255 0.80422324 -0.09951327 0.24047227 -0.1946967 0.24651094 0.029600533 -0.10524024 0.2419056 -0.8496885 0.94902056 -0.3163646 -0.010108677 -0.50901854 0.44109046 -0.032139346 -0.44159508 -0.08047707 0.014862493 -0.5137471 0.13125785 0.02793483 -0.2642664 0.25160006 -0.063752994 -0.29207814 0.55205286 0.24966662 -0.14723678 -0.021600239 0.30555555 0.24183677 -0.25104424 -0.12695839 0.06871084 0.09379829 0.35727715 0.0013929043 -0.23313743 -0.4636998 -0.032970566 -0.06461347 -0.32933396 0.07753864 -0.02590198 0.011395659 -0.45741552 -0.06656946 -0.031480297
4 0.39359987 -0.09675275 0.29793784 -0.022208484 -0.025188971 -0.42428067 -0.07960354 0.029359348 -0.26450467 0.30001783 0.20598544 -0.5205615 0.11118283 0.07763984 0.1589195 0.24522853 0.30452374 0.06448631 -0.14565212 -0.0070349462 0.07743106 -0.43292865 0.47656402 0.32460588 -0.5185712 1.1660767 -0.6854046 -0.16107316 -0.4097153 0.6676325 0.11382074 0.2617455 -0.04806983 0.6129331 -0.26496118 -0.1906859 0.22717915 -0.42497572 0.13958302 0.18662687 -0.21825019 0.19754866 0.20131227 -0.24922024 -0.05368961 0.1473729 0.33373308 -0.43902758 0.2602435 0.059138246 -0.09454442 -0.049080737 -0.19620068 0.07384467 -0.30596143 0.15789354 -0.27057537 0.031115131 -0.1567841 -0.24151832 0.12574004 -0.25537097 -0.20122291 0.22978424
101 0.1141823 0.066196546 -0.37748003 0.17755029 -0.20619759 -0.11576242 0.014348921 -0.023451874 -0.15177532 -0.06837336 0.035052236 -0.5248458 -0.117108926 0.15649511 0.051643964 0.3183345 0.21332178 -0.014490967 -0.11798117 -0.5998609 -0.056854367 -0.16244589 0.53268236 -0.070280805 -0.8417094 0.67668754 -0.6939121 0.100427546 -0.43177354 0.82841206 -0.30579877 -0.18903823 0.33902082 0.007914319 -0.23710324 0.07879146 0.29308087 -0.5668494 -0.06569701 0.5089673 -0.2587747 0.25436592 0.39558622 -0.698721 0.022480126 0.18369582 0.25387037 -0.48590145 -0.10552191 -0.24576826 -0.1726567 0.10751213 0.093919866 -0.28392148 -0.42758542 -0.14000057 0.07507703 -0.18427728 -0.14560694 -0.10908168 -0.09049066 0.28265917 -0.2880841 -0.71376836
0 0.50764865 -0.0964334 0.32139453 -0.043383613 -0.24335115 -0.22687425 0.02816555 -0.010346631 -0.18236889 0.43112123 0.07303643 -0.459469 0.04136379 0.02303101 0.36422426 0.28060326 0.36723447 -0.10195407 -0.24419695 -0.15843287 -0.029868549 -0.4918527 0.6261356 0.2973517 -0.51616436 1.2097095 -0.74123114 -0.23948665 -0.36311424 0.59788275 0.10818346 0.21927476 -0.12062048 0.62115633 -0.20480557 -0.061571464 0.3638281 -0.24111675 0.2721999 0.25679648 -0.027093109 0.17579569 0.22597769 -0.29891977 -0.120670594 0.34983498 0.36060193 -0.4458225 0.0076691974 -0.17483851 -0.061885174 -0.0447254 -0.025707383 0.15997769 -0.3077522 0.2085069 -0.37845972 0.07601565 -0.27292055 -0.10496479 0.36348084 -0.4170588 0.0004730377 0.23867576
